{"learner":{"attributes":{"best_iteration":"198","best_ntree_limit":"199"},"feature_names":[],"feature_types":[],"gradient_booster":{"model":{"gbtree_model_param":{"num_parallel_tree":"1","num_trees":"199","size_leaf_vector":"0"},"tree_info":[0,0,0,0,0,0,0,0,0,0,0,0,0,0,0,0,0,0,0,0,0,0,0,0,0,0,0,0,0,0,0,0,0,0,0,0,0,0,0,0,0,0,0,0,0,0,0,0,0,0,0,0,0,0,0,0,0,0,0,0,0,0,0,0,0,0,0,0,0,0,0,0,0,0,0,0,0,0,0,0,0,0,0,0,0,0,0,0,0,0,0,0,0,0,0,0,0,0,0,0,0,0,0,0,0,0,0,0,0,0,0,0,0,0,0,0,0,0,0,0,0,0,0,0,0,0,0,0,0,0,0,0,0,0,0,0,0,0,0,0,0,0,0,0,0,0,0,0,0,0,0,0,0,0,0,0,0,0,0,0,0,0,0,0,0,0,0,0,0,0,0,0,0,0,0,0,0,0,0,0,0,0,0,0,0,0,0,0,0,0,0,0,0,0,0,0,0,0,0],"trees":[{"base_weights":[-2.386635E-3,-1.2626308E0,6.1139435E-1,-7.7619445E-1,-1.8333334E0,7.875825E-1,-1.0943396E0,-9.3333334E-2,-1.4572865E0,-1.889586E0,-1.5906976E0,1.4574899E-1,1.1504018E0,-1.373913E0,1.2048193E-1],"categories":[],"categories_nodes":[],"categories_segments":[],"categories_sizes":[],"default_left":[1,1,1,1,1,1,1,0,0,0,0,0,0,0,0],"id":0,"left_children":[1,3,5,7,9,11,13,-1,-1,-1,-1,-1,-1,-1,-1],"loss_changes":[1.2971814E3,1.5105444E2,3.397847E2,1.3857745E2,4.3377686E-1,2.379997E2,3.616651E1,0E0,0E0,0E0,0E0,0E0,0E0,0E0,0E0],"parents":[2147483647,0,0,1,1,2,2,3,3,4,4,5,5,6,6],"right_children":[2,4,6,8,10,12,14,-1,-1,-1,-1,-1,-1,-1,-1],"split_conditions":[1.7192363E0,5E-1,5E-1,5E-1,9.35E1,5E-1,5.15E1,-3.4825818E-3,-5.4376278E-2,-7.050683E-2,-5.9354298E-2,5.438387E-3,4.2925376E-2,-5.1265333E-2,4.4955877E-3],"split_indices":[14,22,21,21,12,19,3,0,0,0,0,0,0,0,0],"split_type":[0,0,0,0,0,0,0,0,0,0,0,0,0,0,0],"sum_hessian":[1.675E3,5.4825E2,1.12675E3,2.9725E2,2.51E2,1.02175E3,1.05E2,1.49E2,1.4825E2,1.9825E2,5.275E1,3.695E2,6.5225E2,8.525E1,1.975E1],"tree_param":{"num_deleted":"0","num_feature":"26","num_nodes":"15","size_leaf_vector":"0"}},{"base_weights":[-1.379247E-2,-1.2218221E0,5.756205E-1,-7.5131506E-1,-1.7856535E0,8.071425E-1,-6.805669E-1,-7.232331E-2,-1.4337183E0,3.6370397E-1,1.2720301E0,-9.4873625E-1,-1.4507475E-1],"categories":[],"categories_nodes":[],"categories_segments":[],"categories_sizes":[],"default_left":[1,1,1,1,0,1,1,0,0,0,0,0,0],"id":1,"left_children":[1,3,5,7,-1,9,11,-1,-1,-1,-1,-1,-1],"loss_changes":[1.1906768E3,1.4412848E2,3.2741708E2,1.3919647E2,0E0,1.9526508E2,2.5056923E1,0E0,0E0,0E0,0E0,0E0,0E0],"parents":[2147483647,0,0,1,1,2,2,3,3,5,5,6,6],"right_children":[2,4,6,8,-1,10,12,-1,-1,-1,-1,-1,-1],"split_conditions":[1.7192363E0,5E-1,5E-1,5E-1,-6.662876E-2,7.200487E0,9.1649994E1,-2.6986268E-3,-5.349687E-2,1.3571023E-2,4.7463737E-2,-3.540055E-2,-5.4132286E-3],"split_indices":[14,22,5,21,0,14,12,0,0,0,0,0,0],"split_type":[0,0,0,0,0,0,0,0,0,0,0,0,0],"sum_hessian":[1.6702445E3,5.4735065E2,1.1228939E3,2.9963943E2,2.477112E2,9.4844745E2,1.7444644E2,1.5074953E2,1.4888991E2,4.863342E2,4.6211325E2,1.1572217E2,5.8724266E1],"tree_param":{"num_deleted":"0","num_feature":"26","num_nodes":"13","size_leaf_vector":"0"}},{"base_weights":[1.4557703E-2,-9.206672E-1,7.366957E-1,-4.702579E-1,-1.7178975E0,9.144644E-1,-4.1495907E-1,1.2468428E-1,-1.229404E0,-1.7739162E0,-1.4011151E0,1.0604489E0,-1.6076647E-1,-8.6424667E-1,3.9008632E-1],"categories":[],"categories_nodes":[],"categories_segments":[],"categories_sizes":[],"default_left":[1,1,1,1,1,1,1,0,0,0,0,0,0,0,0],"id":2,"left_children":[1,3,5,7,9,11,13,-1,-1,-1,-1,-1,-1,-1,-1],"loss_changes":[1.1185023E3,2.5831067E2,1.9170435E2,2.0903339E2,2.1307373E0,1.272948E2,4.578512E1,0E0,0E0,0E0,0E0,0E0,0E0,0E0,0E0],"parents":[2147483647,0,0,1,1,2,2,3,3,4,4,5,5,6,6],"right_children":[2,4,6,8,10,12,14,-1,-1,-1,-1,-1,-1,-1,-1],"split_conditions":[2.2685986E0,5E-1,5E-1,5E-1,1.033E2,5E-1,8.498055E0,4.6523917E-3,-4.5873214E-2,-6.61908E-2,-5.2280333E-2,3.9568927E-2,-5.9987395E-3,-3.224796E-2,1.45554375E-2],"split_indices":[14,22,2,21,12,8,14,0,0,0,0,0,0,0,0],"split_type":[0,0,0,0,0,0,0,0,0,0,0,0,0,0,0],"sum_hessian":[1.6541494E3,7.2061804E2,9.335314E2,4.6148428E2,2.591338E2,8.088793E2,1.2465213E2,2.591917E2,2.0229257E2,2.162866E2,4.284719E1,7.121977E2,9.668158E1,7.995598E1,4.469615E1],"tree_param":{"num_deleted":"0","num_feature":"26","num_nodes":"15","size_leaf_vector":"0"}},{"base_weights":[1.4385159E-2,-9.324315E-1,6.8726903E-1,-4.9237093E-1,-1.6747364E0,9.829149E-2,1.0398458E0,9.989555E-2,-1.1967133E0,-4.6329188E-1,7.0128536E-1,6.477719E-1,1.3947133E0],"categories":[],"categories_nodes":[],"categories_segments":[],"categories_sizes":[],"default_left":[1,1,1,1,0,1,1,0,0,0,0,0,0],"id":3,"left_children":[1,3,5,7,-1,9,11,-1,-1,-1,-1,-1,-1],"loss_changes":[1.0578629E3,2.2450977E2,2.0145645E2,1.813714E2,0E0,1.23778015E2,8.3558716E1,0E0,0E0,0E0,0E0,0E0,0E0],"parents":[2147483647,0,0,1,1,2,2,3,3,5,5,6,6],"right_children":[2,4,6,8,-1,10,12,-1,-1,-1,-1,-1,-1],"split_conditions":[2.151699E0,5E-1,5E-1,5E-1,-6.249007E-2,8.126041E0,6.9441805E0,3.7274403E-3,-4.4653416E-2,-1.7286984E-2,2.6167324E-2,2.4170555E-2,5.204146E-2],"split_indices":[14,22,19,21,0,14,14,0,0,0,0,0,0],"split_type":[0,0,0,0,0,0,0,0,0,0,0,0,0],"sum_hessian":[1.6584348E3,6.888153E2,9.696195E2,4.334917E2,2.5532361E2,3.6356494E2,6.0605457E2,2.3594704E2,1.9754466E2,1.8836632E2,1.7519862E2,2.8927533E2,3.1677924E2],"tree_param":{"num_deleted":"0","num_feature":"26","num_nodes":"13","size_leaf_vector":"0"}},{"base_weights":[-4.3412913E-3,3.226729E-1,-1.6240207E0,6.533113E-1,-1.1269478E0,-1.6894348E0,-1.2649391E0,1.2554057E-1,9.862036E-1,-1.3693016E0,-1.5773691E-1,-8.7318206E-1,-1.575237E0],"categories":[],"categories_nodes":[],"categories_segments":[],"categories_sizes":[],"default_left":[1,1,1,1,1,0,1,0,0,0,0,0,0],"id":4,"left_children":[1,3,5,7,9,-1,11,-1,-1,-1,-1,-1,-1],"loss_changes":[8.78829E2,6.6242126E2,4.409912E0,1.9748596E2,6.0095917E1,0E0,4.329529E0,0E0,0E0,0E0,0E0,0E0,0E0],"parents":[2147483647,0,0,1,1,2,2,3,3,4,4,6,6],"right_children":[2,4,6,8,10,-1,12,-1,-1,-1,-1,-1,-1],"split_conditions":[5E-1,5E-1,1.03325E2,5E-1,1.0225E2,-6.303851E-2,1.09825E2,4.6843425E-3,3.6798585E-2,-5.109326E-2,-5.8856965E-3,-3.258137E-2,-5.877741E-2],"split_indices":[22,21,12,19,12,0,12,0,0,0,0,0,0],"split_type":[0,0,0,0,0,0,0,0,0,0,0,0,0],"sum_hessian":[1.6572487E3,1.379523E3,2.7772568E2,1.1237585E3,2.5576445E2,2.3179468E2,4.593101E1,4.351865E2,6.88572E2,2.042727E2,5.149174E1,2.1986563E1,2.3944448E1],"tree_param":{"num_deleted":"0","num_feature":"26","num_nodes":"13","size_leaf_vector":"0"}},{"base_weights":[9.976531E-3,-8.378452E-1,6.62922E-1,-4.444433E-1,-1.5465255E0,8.268855E-1,-4.4621432E-1,4.4116914E-2,-1.0855253E0,-1.6147573E0,-1.1746151E0,9.538777E-1,-2.9656252E-1,-8.7330765E-1,2.8787193E-1],"categories":[],"categories_nodes":[],"categories_segments":[],"categories_sizes":[],"default_left":[1,1,1,1,1,1,1,0,0,0,0,0,0,0,0],"id":5,"left_children":[1,3,5,7,9,11,13,-1,-1,-1,-1,-1,-1,-1,-1],"loss_changes":[9.109552E2,1.9891663E2,1.694267E2,1.4468243E2,4.578308E0,1.1587897E2,3.7991856E1,0E0,0E0,0E0,0E0,0E0,0E0,0E0,0E0],"parents":[2147483647,0,0,1,1,2,2,3,3,4,4,5,5,6,6],"right_children":[2,4,6,8,10,12,14,-1,-1,-1,-1,-1,-1,-1,-1],"split_conditions":[2.2724748E0,5E-1,5E-1,5E-1,1.033E2,5E-1,7.885357E0,1.646151E-3,-4.0504612E-2,-6.0252044E-2,-4.3828856E-2,3.5592396E-2,-1.10657485E-2,-3.2586057E-2,1.0741473E-2],"split_indices":[14,22,2,21,12,5,14,0,0,0,0,0,0,0,0],"split_type":[0,0,0,0,0,0,0,0,0,0,0,0,0,0,0],"sum_hessian":[1.6435636E3,7.1494934E2,9.2861426E2,4.6078558E2,2.5416374E2,8.09239E2,1.1937526E2,2.6202835E2,1.9875722E2,2.1193893E2,4.22248E1,7.2718994E2,8.204907E1,7.534796E1,4.4027298E1],"tree_param":{"num_deleted":"0","num_feature":"26","num_nodes":"15","size_leaf_vector":"0"}},{"base_weights":[-3.8598024E-3,-1.0346195E0,4.953254E-1,-6.266325E-1,-1.5500866E0,5.0293352E-2,1.0625781E0,-6.893105E-2,-1.2207826E0,-5.934211E-1,4.3755794E-1,5.7334924E-1,1.3551204E0],"categories":[],"categories_nodes":[],"categories_segments":[],"categories_sizes":[],"default_left":[1,1,1,1,0,1,1,0,0,0,0,0,0],"id":6,"left_children":[1,3,5,7,-1,9,11,-1,-1,-1,-1,-1,-1],"loss_changes":[8.4783624E2,1.1209277E2,2.8019574E2,9.991213E1,0E0,1.5559978E2,6.906586E1,0E0,0E0,0E0,0E0,0E0,0E0],"parents":[2147483647,0,0,1,1,2,2,3,3,5,5,6,6],"right_children":[2,4,6,8,-1,10,12,-1,-1,-1,-1,-1,-1],"split_conditions":[1.7192363E0,5E-1,7.1982145E0,5E-1,-5.7838965E-2,5E-1,5E-1,-2.57205E-3,-4.555152E-2,-2.2142544E-2,1.6326763E-2,2.1393595E-2,5.0564118E-2],"split_indices":[14,22,14,21,0,19,19,0,0,0,0,0,0],"split_type":[0,0,0,0,0,0,0,0,0,0,0,0,0],"sum_hessian":[1.6457598E3,5.3662286E2,1.1091368E3,3.007768E2,2.358461E2,6.221357E2,4.870012E2,1.557229E2,1.4505391E2,2.3349161E2,3.8864407E2,1.8334567E2,3.0365552E2],"tree_param":{"num_deleted":"0","num_feature":"26","num_nodes":"13","size_leaf_vector":"0"}},{"base_weights":[-1.0529216E-2,-8.2031846E-1,5.6919974E-1,-4.4018942E-1,-1.4653579E0,1.3100292E-1,9.907825E-1,6.951573E-2,-1.0474656E0,-1.5250802E0,-1.051389E0,3.6039355E-1,-1.0446758E0,5.6287706E-1,1.2462192E0],"categories":[],"categories_nodes":[],"categories_segments":[],"categories_sizes":[],"default_left":[1,1,1,1,1,1,1,0,0,0,0,0,0,0,0],"id":7,"left_children":[1,3,5,7,9,11,13,-1,-1,-1,-1,-1,-1,-1,-1],"loss_changes":[7.625262E2,1.6551727E2,1.7474316E2,1.3249625E2,4.5982666E0,1.25866E2,5.2015015E1,0E0,0E0,0E0,0E0,0E0,0E0,0E0,0E0],"parents":[2147483647,0,0,1,1,2,2,3,3,4,4,5,5,6,6],"right_children":[2,4,6,8,10,12,14,-1,-1,-1,-1,-1,-1,-1,-1],"split_conditions":[2.151173E0,5E-1,7.079762E0,5E-1,1.0579169E2,5E-1,5E-1,2.5938665E-3,-3.9084475E-2,-5.690589E-2,-3.9230872E-2,1.34475E-2,-3.898038E-2,2.1002844E-2,4.650064E-2],"split_indices":[14,22,14,21,12,25,19,0,0,0,0,0,0,0,0],"split_type":[0,0,0,0,0,0,0,0,0,0,0,0,0,0,0],"sum_hessian":[1.6222738E3,6.7666516E2,9.4560864E2,4.2681854E2,2.4984657E2,4.643107E2,4.812979E2,2.3253253E2,1.9428601E2,2.160006E2,3.384598E1,3.890879E2,7.522279E1,1.8110909E2,3.0018884E2],"tree_param":{"num_deleted":"0","num_feature":"26","num_nodes":"15","size_leaf_vector":"0"}},{"base_weights":[-6.5933885E-3,-9.9963707E-1,4.6494478E-1,-6.3510454E-1,-1.461849E0,6.683207E-1,-5.8135116E-1,-1.1483085E-1,-1.1581743E0,-1.5044566E0,-1.1938511E0,2.8637573E-1,1.0688753E0,-2.557597E-1,-9.8098695E-1],"categories":[],"categories_nodes":[],"categories_segments":[],"categories_sizes":[],"default_left":[1,1,1,1,1,1,1,0,0,0,0,0,0,0,0],"id":8,"left_children":[1,3,5,7,9,11,13,-1,-1,-1,-1,-1,-1,-1,-1],"loss_changes":[7.652567E2,8.7726074E1,2.3618349E2,8.040251E1,8.442383E-1,1.4170401E2,2.3283726E1,0E0,0E0,0E0,0E0,0E0,0E0,0E0,0E0],"parents":[2147483647,0,0,1,1,2,2,3,3,4,4,5,5,6,6],"right_children":[2,4,6,8,10,12,14,-1,-1,-1,-1,-1,-1,-1,-1],"split_conditions":[1.7192363E0,5E-1,5E-1,5E-1,1.03325E2,7.080444E0,5E-1,-4.284727E-3,-4.321539E-2,-5.6136355E-2,-4.4546615E-2,1.0685645E-2,3.9883345E-2,-9.543257E-3,-3.6603935E-2],"split_indices":[14,22,8,21,12,14,16,0,0,0,0,0,0,0,0],"split_type":[0,0,0,0,0,0,0,0,0,0,0,0,0,0,0],"sum_hessian":[1.6322704E3,5.2516675E2,1.1071036E3,2.9493475E2,2.3023201E2,9.2723224E2,1.7987141E2,1.4847398E2,1.4646077E2,1.946689E2,3.556312E1,4.755198E2,4.517124E2,1.00021675E2,7.984975E1],"tree_param":{"num_deleted":"0","num_feature":"26","num_nodes":"15","size_leaf_vector":"0"}},{"base_weights":[1.08682625E-2,-9.8697275E-1,4.406419E-1,-6.225949E-1,-1.4121182E0,6.42556E-1,-6.470834E-1,-1.20254576E-1,-1.1182023E0,-1.449134E0,-1.1017607E0,7.858725E-1,-5.230437E-1,-8.570299E-1,-2.4834204E-1],"categories":[],"categories_nodes":[],"categories_segments":[],"categories_sizes":[],"default_left":[1,1,1,1,1,1,1,0,0,0,0,0,0,0,0],"id":9,"left_children":[1,3,5,7,9,11,13,-1,-1,-1,-1,-1,-1,-1,-1],"loss_changes":[6.976843E2,7.49924E1,2.5015538E2,6.5970375E1,9.9102783E-1,1.6070795E2,1.4732765E1,0E0,0E0,0E0,0E0,0E0,0E0,0E0,0E0],"parents":[2147483647,0,0,1,1,2,2,3,3,4,4,5,5,6,6],"right_children":[2,4,6,8,10,12,14,-1,-1,-1,-1,-1,-1,-1,-1],"split_conditions":[1.6481855E0,5E-1,5E-1,5E-1,1.0589168E2,5E-1,9.1649994E1,-4.4871042E-3,-4.1723903E-2,-5.4072082E-2,-4.111041E-2,2.9323557E-2,-1.9516526E-2,-3.1978678E-2,-9.26648E-3],"split_indices":[14,22,5,21,12,20,12,0,0,0,0,0,0,0,0],"split_type":[0,0,0,0,0,0,0,0,0,0,0,0,0,0,0],"sum_hessian":[1.6248745E3,4.8876706E2,1.1361074E3,2.6452014E2,2.2424693E2,9.585764E2,1.7753098E2,1.3198488E2,1.3253526E2,1.9707307E2,2.7173859E1,8.539096E2,1.046668E2,1.15544685E2,6.1986282E1],"tree_param":{"num_deleted":"0","num_feature":"26","num_nodes":"15","size_leaf_vector":"0"}},{"base_weights":[-8.046714E-3,-7.353115E-1,5.4506433E-1,-3.8990444E-1,-1.3775147E0,7.100926E-1,-5.101287E-1,6.483306E-2,-1.0225064E0,-1.4307762E0,-1.0818005E0,7.84111E-1,-1.1006341E0,-8.631408E-1,1.4139186E-1],"categories":[],"categories_nodes":[],"categories_segments":[],"categories_sizes":[],"default_left":[1,1,1,1,1,1,1,0,0,0,0,0,0,0,0],"id":10,"left_children":[1,3,5,7,9,11,13,-1,-1,-1,-1,-1,-1,-1,-1],"loss_changes":[6.503683E2,1.5439096E2,1.602826E2,1.3111609E2,2.293274E0,1.0735779E2,2.8821991E1,0E0,0E0,0E0,0E0,0E0,0E0,0E0,0E0],"parents":[2147483647,0,0,1,1,2,2,3,3,4,4,5,5,6,6],"right_children":[2,4,6,8,10,12,14,-1,-1,-1,-1,-1,-1,-1,-1],"split_conditions":[2.2893877E0,5E-1,5E-1,5E-1,1.03325E2,5E-1,7.867857E0,2.4191404E-3,-3.8153164E-2,-5.338709E-2,-4.0365625E-2,2.9257828E-2,-4.1068375E-2,-3.22067E-2,5.2758073E-3],"split_indices":[14,22,2,21,12,21,14,0,0,0,0,0,0,0,0],"split_type":[0,0,0,0,0,0,0,0,0,0,0,0,0,0,0],"sum_hessian":[1.6147968E3,6.974356E2,9.1736115E2,4.545594E2,2.4287625E2,7.9357587E2,1.2378527E2,2.6497974E2,1.8957964E2,2.0255534E2,4.03209E1,7.6295496E2,3.062092E1,8.007407E1,4.3711193E1],"tree_param":{"num_deleted":"0","num_feature":"26","num_nodes":"15","size_leaf_vector":"0"}},{"base_weights":[-7.6610134E-3,-5.4785514E-1,7.497581E-1,-2.4276115E-1,-1.3744605E0,2.7169636E-1,1.0499862E0,1.2821001E-1,-9.591912E-1,-1.4284703E0,-1.0832952E0,-3.0180115E-1,5.5056185E-1,1.10331E0,5.654449E-2],"categories":[],"categories_nodes":[],"categories_segments":[],"categories_sizes":[],"default_left":[1,1,1,1,1,1,1,0,0,0,0,0,0,0,0],"id":11,"left_children":[1,3,5,7,9,11,13,-1,-1,-1,-1,-1,-1,-1,-1],"loss_changes":[6.601516E2,2.371735E2,9.61199E1,1.832667E2,2.4418335E0,4.182016E1,2.1775146E1,0E0,0E0,0E0,0E0,0E0,0E0,0E0,0E0],"parents":[2147483647,0,0,1,1,2,2,3,3,4,4,5,5,6,6],"right_children":[2,4,6,8,10,12,14,-1,-1,-1,-1,-1,-1,-1,-1],"split_conditions":[3.9424324E0,5E-1,5E-1,5E-1,1.03325E2,7.889286E0,5E-1,4.7839484E-3,-3.5790663E-2,-5.3301048E-2,-4.04214E-2,-1.1261219E-2,2.054332E-2,4.116822E-2,2.109866E-3],"split_indices":[14,22,19,21,12,14,23,0,0,0,0,0,0,0,0],"split_type":[0,0,0,0,0,0,0,0,0,0,0,0,0,0,0],"sum_hessian":[1.6114539E3,9.4076996E2,6.706839E2,6.880934E2,2.5267656E2,2.594536E2,4.1123032E2,4.538886E2,2.342048E2,2.098452E2,4.2831356E1,8.485788E1,1.7459572E2,3.901767E2,2.1053606E1],"tree_param":{"num_deleted":"0","num_feature":"26","num_nodes":"15","size_leaf_vector":"0"}},{"base_weights":[-1.0708877E-2,-7.034004E-1,5.13444E-1,-3.855031E-1,-1.3173555E0,6.6842705E-1,-4.7682574E-1,3.417433E-2,-9.348492E-1,-1.3734484E0,-1.1433898E0,7.969732E-1,-2.753681E-1,-8.7220424E-1,2.0082931E-1],"categories":[],"categories_nodes":[],"categories_segments":[],"categories_sizes":[],"default_left":[1,1,1,1,1,1,1,0,0,0,0,0,0,0,0],"id":12,"left_children":[1,3,5,7,9,11,13,-1,-1,-1,-1,-1,-1,-1,-1],"loss_changes":[5.810064E2,1.3402408E2,1.4012653E2,1.0505942E2,7.2024536E-1,9.583136E1,3.336075E1,0E0,0E0,0E0,0E0,0E0,0E0,0E0,0E0],"parents":[2147483647,0,0,1,1,2,2,3,3,4,4,5,5,6,6],"right_children":[2,4,6,8,10,12,14,-1,-1,-1,-1,-1,-1,-1,-1],"split_conditions":[2.2886963E0,5E-1,5E-1,5E-1,5E-1,5E-1,7.867857E0,1.2751597E-3,-3.4882378E-2,-5.1247995E-2,-4.2663734E-2,2.9737761E-2,-1.0274913E-2,-3.2544885E-2,7.4936193E-3],"split_indices":[14,22,2,21,19,8,14,0,0,0,0,0,0,0,0],"split_type":[0,0,0,0,0,0,0,0,0,0,0,0,0,0,0],"sum_hessian":[1.5982379E3,6.8829E2,9.0994794E2,4.545555E2,2.3373447E2,7.8708887E2,1.2285904E2,2.582223E2,1.9633324E2,1.7153156E2,6.2202896E1,6.928741E2,9.421481E1,7.740811E1,4.5450928E1],"tree_param":{"num_deleted":"0","num_feature":"26","num_nodes":"15","size_leaf_vector":"0"}},{"base_weights":[-7.4661532E-3,2.3345546E-1,-1.3244458E0,4.8321915E-1,-9.189889E-1,-1.386165E0,-9.996743E-1,3.9842594E-3,7.8110933E-1,-1.1747881E0,-4.8680525E-2,-1.4086683E0,-1.059206E0,-2.9374576E-1,-1.1368159E0],"categories":[],"categories_nodes":[],"categories_segments":[],"categories_sizes":[],"default_left":[1,1,1,1,1,1,1,0,0,0,0,0,0,0,0],"id":13,"left_children":[1,3,5,7,9,11,13,-1,-1,-1,-1,-1,-1,-1,-1],"loss_changes":[5.0509213E2,3.878022E2,3.5488586E0,1.5798807E2,5.338408E1,1.0955811E-2,3.8192215E0,0E0,0E0,0E0,0E0,0E0,0E0,0E0,0E0],"parents":[2147483647,0,0,1,1,2,2,3,3,4,4,5,5,6,6],"right_children":[2,4,6,8,10,12,14,-1,-1,-1,-1,-1,-1,-1,-1],"split_conditions":[5E-1,5E-1,1.03325E2,5E-1,9.9975E1,5E-1,5E-1,1.4866616E-4,2.9145826E-2,-4.3835312E-2,-1.8164347E-3,-5.256217E-2,-3.952255E-2,-1.0960646E-2,-4.241844E-2],"split_indices":[22,21,12,19,12,24,6,0,0,0,0,0,0,0,0],"split_type":[0,0,0,0,0,0,0,0,0,0,0,0,0,0,0],"sum_hessian":[1.5899255E3,1.3447471E3,2.451785E2,1.1056957E3,2.3905136E2,2.032794E2,4.189909E1,4.2422745E2,6.8146826E2,1.8447963E2,5.4571735E1,1.8709409E2,1.6185316E1,7.3267865E0,3.4572304E1],"tree_param":{"num_deleted":"0","num_feature":"26","num_nodes":"15","size_leaf_vector":"0"}},{"base_weights":[1.8182883E-2,-5.404338E-1,6.095771E-1,-9.498294E-1,-2.7198605E-2,1.6461341E-1,8.87425E-1,-2.3220484E-1,-1.1505417E0,3.288889E-1,-8.89273E-1,-3.7785986E-1,5.331514E-1,9.718971E-1,-4.283481E-2],"categories":[],"categories_nodes":[],"categories_segments":[],"categories_sizes":[],"default_left":[1,1,1,1,1,1,1,0,0,0,0,0,0,0,0],"id":14,"left_children":[1,3,5,7,9,11,13,-1,-1,-1,-1,-1,-1,-1,-1],"loss_changes":[5.280172E2,1.7267758E2,9.583655E1,6.558545E1,1.1256723E2,6.0109684E1,3.757962E1,0E0,0E0,0E0,0E0,0E0,0E0,0E0,0E0],"parents":[2147483647,0,0,1,1,2,2,3,3,4,4,5,5,6,6],"right_children":[2,4,6,8,10,12,14,-1,-1,-1,-1,-1,-1,-1,-1],"split_conditions":[3.0441966E0,5E-1,5E-1,5E-1,5E-1,7.889286E0,5E-1,-8.664346E-3,-4.293059E-2,1.2271955E-2,-3.3181775E-2,-1.4099227E-2,1.9893678E-2,3.6264762E-2,-1.5983114E-3],"split_indices":[14,19,19,4,5,14,8,0,0,0,0,0,0,0,0],"split_type":[0,0,0,0,0,0,0,0,0,0,0,0,0,0,0],"sum_hessian":[1.5962983E3,8.2094226E2,7.753561E2,4.5619534E2,3.647469E2,2.9865805E2,4.76698E2,1.00177734E2,3.560176E2,2.5856345E2,1.0618344E2,1.2080807E2,1.7784998E2,4.3697388E2,3.972413E1],"tree_param":{"num_deleted":"0","num_feature":"26","num_nodes":"15","size_leaf_vector":"0"}},{"base_weights":[1.3936975E-2,-8.2921547E-1,4.0228716E-1,-5.049532E-1,-1.2645205E0,5.7565135E-1,-5.888719E-1,-4.9718276E-2,-9.9846655E-1,-1.2790062E0,-8.520515E-1,7.075322E-1,-5.280391E-1,-8.2812756E-1,-1.12782955E-1],"categories":[],"categories_nodes":[],"categories_segments":[],"categories_sizes":[],"default_left":[1,1,1,1,1,1,1,0,0,0,0,0,0,0,0],"id":15,"left_children":[1,3,5,7,9,11,13,-1,-1,-1,-1,-1,-1,-1,-1],"loss_changes":[5.197141E2,7.001242E1,1.8706233E2,6.476944E1,1.8295288E-1,1.3507056E2,1.839003E1,0E0,0E0,0E0,0E0,0E0,0E0,0E0,0E0],"parents":[2147483647,0,0,1,1,2,2,3,3,4,4,5,5,6,6],"right_children":[2,4,6,8,10,12,14,-1,-1,-1,-1,-1,-1,-1,-1],"split_conditions":[1.718354E0,5E-1,5E-1,5E-1,1.6081538E0,5E-1,9.1649994E1,-1.8551567E-3,-3.725616E-2,-4.7724042E-2,-3.1792916E-2,2.6400415E-2,-1.970292E-2,-3.0900234E-2,-4.208313E-3],"split_indices":[14,22,5,21,14,20,12,0,0,0,0,0,0,0,0],"split_type":[0,0,0,0,0,0,0,0,0,0,0,0,0,0,0],"sum_hessian":[1.5851931E3,4.995273E2,1.0856658E3,2.87515E2,2.1201227E2,9.243981E2,1.6126775E2,1.5013017E2,1.3738486E2,2.0278954E2,9.222734E0,8.260514E2,9.834665E1,1.0683767E2,5.4430077E1],"tree_param":{"num_deleted":"0","num_feature":"26","num_nodes":"15","size_leaf_vector":"0"}},{"base_weights":[-1.1949446E-2,-8.228362E-1,3.602174E-1,-5.313562E-1,-1.2248952E0,5.483154E-1,-5.9131134E-1,-7.2603375E-1,4.7081906E-1,-1.2630664E0,-9.9717164E-1,6.803094E-1,-5.423101E-1,-2.7846482E-1,-9.931243E-1],"categories":[],"categories_nodes":[],"categories_segments":[],"categories_sizes":[],"default_left":[1,1,1,1,1,1,1,0,0,0,0,0,0,0,0],"id":16,"left_children":[1,3,5,7,9,11,13,-1,-1,-1,-1,-1,-1,-1,-1],"loss_changes":[4.7077545E2,5.6859222E1,1.9169992E2,5.6190308E1,5.266113E-1,1.2896344E2,2.1968838E1,0E0,0E0,0E0,0E0,0E0,0E0,0E0,0E0],"parents":[2147483647,0,0,1,1,2,2,3,3,4,4,5,5,6,6],"right_children":[2,4,6,8,10,12,14,-1,-1,-1,-1,-1,-1,-1,-1],"split_conditions":[1.7177701E0,5E-1,5E-1,9.9672585E1,1.03325E2,5E-1,5E-1,-2.709077E-2,1.7567849E-2,-4.712927E-2,-3.720784E-2,2.538464E-2,-2.0235421E-2,-1.0390462E-2,-3.705682E-2],"split_indices":[14,22,8,12,12,20,16,0,0,0,0,0,0,0,0],"split_type":[0,0,0,0,0,0,0,0,0,0,0,0,0,0,0],"sum_hessian":[1.5579866E3,4.8973288E2,1.0682537E3,2.852542E2,2.0447868E2,8.922898E2,1.7596391E2,2.3908609E2,4.6168118E1,1.7123041E2,3.3248283E1,7.9629376E2,9.599604E1,9.988654E1,7.607737E1],"tree_param":{"num_deleted":"0","num_feature":"26","num_nodes":"15","size_leaf_vector":"0"}},{"base_weights":[1.154461E-2,-5.1818526E-1,5.6736946E-1,-2.4836592E-1,-1.1994357E0,6.8386227E-1,-3.7565818E-1,1.0249823E-1,-8.4567046E-1,-1.2630812E0,-8.846025E-1,7.939604E-1,-1.9440758E-1,-6.8769056E-1,6.347404E-1],"categories":[],"categories_nodes":[],"categories_segments":[],"categories_sizes":[],"default_left":[1,1,1,1,1,1,1,0,0,0,0,0,0,0,0],"id":17,"left_children":[1,3,5,7,9,11,13,-1,-1,-1,-1,-1,-1,-1,-1],"loss_changes":[4.5620862E2,1.4553093E2,8.33168E1,1.19445755E2,3.3873596E0,6.526016E1,2.6848976E1,0E0,0E0,0E0,0E0,0E0,0E0,0E0,0E0],"parents":[2147483647,0,0,1,1,2,2,3,3,4,4,5,5,6,6],"right_children":[2,4,6,8,10,12,14,-1,-1,-1,-1,-1,-1,-1,-1],"split_conditions":[3.0441966E0,5E-1,5E-1,5E-1,1.03325E2,5E-1,9.145E1,3.824555E-3,-3.155482E-2,-4.7129825E-2,-3.3007506E-2,2.9625343E-2,-7.254003E-3,-2.5660057E-2,2.3684308E-2],"split_indices":[14,22,5,21,12,20,12,0,0,0,0,0,0,0,0],"split_type":[0,0,0,0,0,0,0,0,0,0,0,0,0,0,0],"sum_hessian":[1.5474281E3,7.9234753E2,7.5508057E2,5.685353E2,2.2381229E2,6.723051E2,8.277544E1,3.5867404E2,2.098612E2,1.8367029E2,4.0142E1,5.9749976E2,7.480536E1,6.3488297E1,1.9287138E1],"tree_param":{"num_deleted":"0","num_feature":"26","num_nodes":"15","size_leaf_vector":"0"}},{"base_weights":[-4.2360555E-3,-5.2313507E-1,5.2972615E-1,-2.6093364E-1,-1.2040626E0,5.942704E-1,-1.2580059E0,-8.4563784E-2,-1.2740585E0,-1.2534987E0,-8.701071E-1,7.390838E-1,1.3995103E-3,-1.4472653E0,-6.5878254E-1],"categories":[],"categories_nodes":[],"categories_segments":[],"categories_sizes":[],"default_left":[1,1,1,1,1,1,1,0,0,0,0,0,0,0,0],"id":18,"left_children":[1,3,5,7,9,11,13,-1,-1,-1,-1,-1,-1,-1,-1],"loss_changes":[4.295862E2,1.400738E2,8.89196E1,1.0156082E2,2.5138245E0,6.3376617E1,2.1026878E0,0E0,0E0,0E0,0E0,0E0,0E0,0E0,0E0],"parents":[2147483647,0,0,1,1,2,2,3,3,4,4,5,5,6,6],"right_children":[2,4,6,8,10,12,14,-1,-1,-1,-1,-1,-1,-1,-1],"split_conditions":[3.0146403E0,5E-1,5E-1,5E-1,1.0589168E2,5E-1,3.5E0,-3.1553602E-3,-4.753942E-2,-4.6772268E-2,-3.2466635E-2,2.7577713E-2,5.2220454E-5,-5.4002352E-2,-2.45814E-2],"split_indices":[14,22,21,25,12,25,13,0,0,0,0,0,0,0,0],"split_type":[0,0,0,0,0,0,0,0,0,0,0,0,0,0,0],"sum_hessian":[1.548447E3,7.8531055E2,7.631364E2,5.679832E2,2.1732733E2,7.371886E2,2.594786E1,4.846895E2,8.329371E1,1.8690578E2,3.0421543E1,5.922743E2,1.449143E2,1.864406E1,7.303799E0],"tree_param":{"num_deleted":"0","num_feature":"26","num_nodes":"15","size_leaf_vector":"0"}},{"base_weights":[-1.02000525E-2,1.960067E-1,-1.219571E0,4.1576448E-1,-8.2410616E-1,-1.2907996E0,-8.3957374E-1,-2.155352E-2,7.020235E-1,-1.0430093E0,5.367983E-2,-1.2360222E0,-1.6322476E0,-2.8696057E-1,-1.1870333E0],"categories":[],"categories_nodes":[],"categories_segments":[],"categories_sizes":[],"default_left":[1,1,1,1,1,1,1,0,0,0,0,0,0,0,0],"id":19,"left_children":[1,3,5,7,9,11,13,-1,-1,-1,-1,-1,-1,-1,-1],"loss_changes":[3.811619E2,2.9308096E2,4.942566E0,1.3459619E2,4.4593307E1,1.4546204E0,6.9570255E0,0E0,0E0,0E0,0E0,0E0,0E0,0E0,0E0],"parents":[2147483647,0,0,1,1,2,2,3,3,4,4,5,5,6,6],"right_children":[2,4,6,8,10,12,14,-1,-1,-1,-1,-1,-1,-1,-1],"split_conditions":[5E-1,5E-1,1.03325E2,5E-1,1.0225E2,1.8202282E0,1.0960365E2,-8.042346E-4,2.6194867E-2,-3.8918197E-2,2.0029757E-3,-4.6120163E-2,-6.0904667E-2,-1.0707468E-2,-4.429222E-2],"split_indices":[22,21,12,19,12,14,12,0,0,0,0,0,0,0,0],"split_type":[0,0,0,0,0,0,0,0,0,0,0,0,0,0,0],"sum_hessian":[1.5264768E3,1.3048313E3,2.2164552E2,1.0740471E3,2.3078413E2,1.8463902E2,3.7006508E1,4.252766E2,6.4877057E2,1.8456813E2,4.6216E1,1.630943E2,2.154472E1,1.4990662E1,2.2015846E1],"tree_param":{"num_deleted":"0","num_feature":"26","num_nodes":"15","size_leaf_vector":"0"}},{"base_weights":[-1.1328796E-2,-4.4195232E-1,6.0264885E-1,-8.4700006E-1,9.02428E-3,2.0533317E-1,8.6802864E-1,-2.3765203E-1,-1.0130119E0,2.947352E-1,-7.886783E-1,3.8889655E-1,-6.103141E-1,9.3256205E-1,-2.6738712E-1],"categories":[],"categories_nodes":[],"categories_segments":[],"categories_sizes":[],"default_left":[1,1,1,1,1,1,1,0,0,0,0,0,0,0,0],"id":20,"left_children":[1,3,5,7,9,11,13,-1,-1,-1,-1,-1,-1,-1,-1],"loss_changes":[4.0527777E2,1.645802E2,6.645006E1,4.7774506E1,9.761744E1,3.832107E1,2.798642E1,0E0,0E0,0E0,0E0,0E0,0E0,0E0,0E0],"parents":[2147483647,0,0,1,1,2,2,3,3,4,4,5,5,6,6],"right_children":[2,4,6,8,10,12,14,-1,-1,-1,-1,-1,-1,-1,-1],"split_conditions":[4.040313E0,5E-1,5E-1,5E-1,5E-1,5E-1,5E-1,-8.8676E-3,-3.7798896E-2,1.09975645E-2,-2.942825E-2,1.4511043E-2,-2.2772878E-2,3.479704E-2,-9.977116E-3],"split_indices":[14,19,19,4,5,1,23,0,0,0,0,0,0,0,0],"split_type":[0,0,0,0,0,0,0,0,0,0,0,0,0,0,0],"sum_hessian":[1.5308525E3,8.9994275E2,6.309097E2,4.7365137E2,4.262914E2,2.5336131E2,3.775484E2,1.0193382E2,3.7171753E2,3.143368E2,1.1195462E2,2.072438E2,4.6117508E1,3.5741287E2,2.0135544E1],"tree_param":{"num_deleted":"0","num_feature":"26","num_nodes":"15","size_leaf_vector":"0"}},{"base_weights":[7.13765E-3,1.9655068E-1,-1.1697602E0,4.069527E-1,-7.899436E-1,-1.2330257E0,-7.6405454E-1,5.564329E-1,-3.137127E-1,-1.0112092E0,4.6463963E-2,-1.2722725E0,-7.601094E-1,-1.12824105E-1,-1.1301994E0],"categories":[],"categories_nodes":[],"categories_segments":[],"categories_sizes":[],"default_left":[1,1,1,1,1,1,1,0,0,0,0,0,0,0,0],"id":21,"left_children":[1,3,5,7,9,11,13,-1,-1,-1,-1,-1,-1,-1,-1],"loss_changes":[3.3961868E2,2.7269568E2,4.478943E0,1.1675934E2,4.2801956E1,2.3939514E0,7.2932186E0,0E0,0E0,0E0,0E0,0E0,0E0,0E0,0E0],"parents":[2147483647,0,0,1,1,2,2,3,3,4,4,5,5,6,6],"right_children":[2,4,6,8,10,12,14,-1,-1,-1,-1,-1,-1,-1,-1],"split_conditions":[5E-1,5E-1,1.0589168E2,5E-1,1.0225E2,5E-1,6.95E1,2.076239E-2,-1.1705679E-2,-3.773163E-2,1.7337273E-3,-4.747278E-2,-2.8362248E-2,-4.209848E-3,-4.2171557E-2],"split_indices":[22,21,12,25,12,24,3,0,0,0,0,0,0,0,0],"split_type":[0,0,0,0,0,0,0,0,0,0,0,0,0,0,0],"sum_hessian":[1.5214703E3,1.3112649E3,2.1020541E2,1.0812423E3,2.3002266E2,1.8008401E2,3.0121405E1,8.956871E2,1.8555522E2,1.8173654E2,4.828612E1,1.6472353E2,1.5360486E1,1.131123E1,1.8810175E1],"tree_param":{"num_deleted":"0","num_feature":"26","num_nodes":"15","size_leaf_vector":"0"}},{"base_weights":[2.757975E-4,-3.973059E-1,5.595984E-1,-1.7478004E-1,-1.1295286E0,1.507744E-1,8.3495295E-1,1.194145E-1,-7.892968E-1,-1.1730644E0,-8.5278165E-1,3.0311877E-1,-7.7347374E-1,9.314616E-1,2.4669604E-1],"categories":[],"categories_nodes":[],"categories_segments":[],"categories_sizes":[],"default_left":[1,1,1,1,1,1,1,0,0,0,0,0,0,0,0],"id":22,"left_children":[1,3,5,7,9,11,13,-1,-1,-1,-1,-1,-1,-1,-1],"loss_changes":[3.329704E2,1.4240758E2,6.9907196E1,1.21656395E2,1.4551086E0,3.5660614E1,2.0862183E1,0E0,0E0,0E0,0E0,0E0,0E0,0E0,0E0],"parents":[2147483647,0,0,1,1,2,2,3,3,4,4,5,5,6,6],"right_children":[2,4,6,8,10,12,14,-1,-1,-1,-1,-1,-1,-1,-1],"split_conditions":[4.040313E0,5E-1,5E-1,5E-1,1.0589168E2,5E-1,5E-1,4.4557583E-3,-2.9451327E-2,-4.377099E-2,-3.1820163E-2,1.1310385E-2,-2.8860915E-2,3.4755975E-2,9.205062E-3],"split_indices":[14,22,19,21,12,8,6,0,0,0,0,0,0,0,0],"split_type":[0,0,0,0,0,0,0,0,0,0,0,0,0,0,0],"sum_hessian":[1.4953281E3,8.7420746E2,6.211207E2,6.714035E2,2.0280391E2,2.5059912E2,3.705216E2,4.5458203E2,2.168215E2,1.7243849E2,3.0365425E1,2.1571477E2,3.488435E1,3.178003E2,5.2721302E1],"tree_param":{"num_deleted":"0","num_feature":"26","num_nodes":"15","size_leaf_vector":"0"}},{"base_weights":[1.0437947E-2,1.930285E-1,-1.1375964E0,3.9574355E-1,-7.7549076E-1,-1.1962011E0,-8.4515285E-1,5.265077E-1,-4.392556E-1,-9.649715E-1,-1.7427735E-2,-1.13915E0,-1.501829E0,-4.606919E-1,-1.1838605E0],"categories":[],"categories_nodes":[],"categories_segments":[],"categories_sizes":[],"default_left":[1,1,1,1,1,1,1,0,0,0,0,0,0,0,0],"id":23,"left_children":[1,3,5,7,9,11,13,-1,-1,-1,-1,-1,-1,-1,-1],"loss_changes":[3.1691675E2,2.563949E2,2.5446472E0,1.1807341E2,3.245877E1,1.2606812E0,4.408375E0,0E0,0E0,0E0,0E0,0E0,0E0,0E0,0E0],"parents":[2147483647,0,0,1,1,2,2,3,3,4,4,5,5,6,6],"right_children":[2,4,6,8,10,12,14,-1,-1,-1,-1,-1,-1,-1,-1],"split_conditions":[5E-1,5E-1,1.03325E2,5E-1,1.03225E2,1.6512136E0,1.10025E2,1.9645778E-2,-1.639011E-2,-3.6006343E-2,-6.502876E-4,-4.2505533E-2,-5.603831E-2,-1.718997E-2,-4.4173833E-2],"split_indices":[22,21,12,2,12,14,12,0,0,0,0,0,0,0,0],"split_type":[0,0,0,0,0,0,0,0,0,0,0,0,0,0,0],"sum_hessian":[1.509814E3,1.3033525E3,2.0646147E2,1.0782598E3,2.2509277E2,1.6941989E2,3.7041573E1,9.3258307E2,1.4567668E2,1.7986252E2,4.523026E1,1.4675302E2,2.2666874E1,1.845443E1,1.8587145E1],"tree_param":{"num_deleted":"0","num_feature":"26","num_nodes":"15","size_leaf_vector":"0"}},{"base_weights":[-1.9324342E-2,-3.2007676E-1,6.881375E-1,-7.41846E-1,1.12964846E-1,7.920705E-1,-5.648523E-1,-1.4116041E-1,-9.0698963E-1,2.9979038E-1,-8.4949964E-1,8.577398E-1,-1.0098341E-1,-8.664465E-1,4.112375E-1],"categories":[],"categories_nodes":[],"categories_segments":[],"categories_sizes":[],"default_left":[1,1,1,1,1,1,1,0,0,0,0,0,0,0,0],"id":24,"left_children":[1,3,5,7,9,11,13,-1,-1,-1,-1,-1,-1,-1,-1],"loss_changes":[3.1983218E2,1.9272386E2,5.8842407E1,5.2889343E1,9.3987465E1,2.4394287E1,1.0638962E1,0E0,0E0,0E0,0E0,0E0,0E0,0E0,0E0],"parents":[2147483647,0,0,1,1,2,2,3,3,4,4,5,5,6,6],"right_children":[2,4,6,8,10,12,14,-1,-1,-1,-1,-1,-1,-1,-1],"split_conditions":[7.080444E0,5E-1,5E-1,5E-1,5E-1,5E-1,8.4E1,-5.2671717E-3,-3.3842847E-2,1.1186191E-2,-3.1697698E-2,3.200517E-2,-3.768032E-3,-3.2330044E-2,1.534466E-2],"split_indices":[14,19,5,4,23,8,12,0,0,0,0,0,0,0,0],"split_type":[0,0,0,0,0,0,0,0,0,0,0,0,0,0,0],"sum_hessian":[1.5011412E3,1.0537319E3,4.4740936E2,5.3345245E2,5.202794E2,4.134799E2,3.3929485E1,1.1543377E2,4.1801868E2,4.362808E2,8.399865E1,3.8519476E2,2.8285143E1,2.6006327E1,7.9231577E0],"tree_param":{"num_deleted":"0","num_feature":"26","num_nodes":"15","size_leaf_vector":"0"}},{"base_weights":[7.3160557E-4,1.7340173E-1,-1.1191648E0,3.389187E-1,-6.2741077E-1,-1.181219E0,-8.223874E-1,4.6450046E-1,-7.251769E-1,-9.17118E-1,-2.18935E-1,-1.3464298E0,-1.1083943E0,-4.768158E-1,-1.0953764E0],"categories":[],"categories_nodes":[],"categories_segments":[],"categories_sizes":[],"default_left":[1,1,1,1,1,1,1,0,0,0,0,0,0,0,0],"id":25,"left_children":[1,3,5,7,9,11,13,-1,-1,-1,-1,-1,-1,-1,-1],"loss_changes":[2.849273E2,1.6942656E2,2.653534E0,1.4179956E2,2.5717232E1,4.3873596E-1,2.9994469E0,0E0,0E0,0E0,0E0,0E0,0E0,0E0,0E0],"parents":[2147483647,0,0,1,1,2,2,3,3,4,4,5,5,6,6],"right_children":[2,4,6,8,10,12,14,-1,-1,-1,-1,-1,-1,-1,-1],"split_conditions":[5E-1,5E-1,1.033E2,5E-1,5E-1,4.55E1,7.05E1,1.733208E-2,-2.7058797E-2,-3.422077E-2,-8.169204E-3,-5.0239842E-2,-4.135793E-2,-1.7791606E-2,-4.087219E-2],"split_indices":[22,2,12,23,19,3,3,0,0,0,0,0,0,0,0],"split_type":[0,0,0,0,0,0,0,0,0,0,0,0,0,0,0],"sum_hessian":[1.4714587E3,1.2756232E3,1.9583553E2,1.057607E3,2.1801611E2,1.5950415E2,3.6331387E1,9.464706E2,1.1113649E2,1.2682299E2,9.1193115E1,4.344823E1,1.1605591E2,1.7246284E1,1.9085102E1],"tree_param":{"num_deleted":"0","num_feature":"26","num_nodes":"15","size_leaf_vector":"0"}},{"base_weights":[5.1195007E-3,-2.6830673E-1,6.785569E-1,-6.635656E-1,1.2632035E-1,7.6443875E-1,-3.876848E-1,-6.775172E-2,-8.4145886E-1,3.5162258E-1,-6.485412E-1,4.4258487E-1,9.568565E-1,-6.9240797E-1,5.5649483E-1],"categories":[],"categories_nodes":[],"categories_segments":[],"categories_sizes":[],"default_left":[1,1,1,1,1,1,1,0,0,0,0,0,0,0,0],"id":26,"left_children":[1,3,5,7,9,11,13,-1,-1,-1,-1,-1,-1,-1,-1],"loss_changes":[2.6894708E2,1.6212051E2,3.8918533E1,5.496939E1,9.1125755E1,2.377092E1,9.621923E0,0E0,0E0,0E0,0E0,0E0,0E0,0E0,0E0],"parents":[2147483647,0,0,1,1,2,2,3,3,4,4,5,5,6,6],"right_children":[2,4,6,8,10,12,14,-1,-1,-1,-1,-1,-1,-1,-1],"split_conditions":[7.603846E0,5E-1,5E-1,5E-1,5E-1,6.9360115E1,8.405E1,-2.5280453E-3,-3.139767E-2,1.3120226E-2,-2.4199262E-2,1.6514335E-2,3.5703547E-2,-2.5836078E-2,2.0764701E-2],"split_indices":[14,19,5,4,5,12,12,0,0,0,0,0,0,0,0],"split_type":[0,0,0,0,0,0,0,0,0,0,0,0,0,0,0],"sum_hessian":[1.458605E3,1.0378308E3,4.2077414E2,5.181599E2,5.1967096E2,3.896707E2,3.1103477E1,1.194545E2,3.987054E2,4.0303027E2,1.16640686E2,1.4703233E2,2.4263834E2,2.371605E1,7.387428E0],"tree_param":{"num_deleted":"0","num_feature":"26","num_nodes":"15","size_leaf_vector":"0"}},{"base_weights":[-4.1367425E-4,-7.282722E-1,2.4886745E-1,-5.362675E-1,-1.0806289E0,4.166571E-1,-5.0360215E-1,-1.3211648E-1,-1.0086269E0,-9.711175E-1,-1.2295626E0,5.456483E-1,-3.9993134E-1,-2.7618176E-1,-7.939936E-1],"categories":[],"categories_nodes":[],"categories_segments":[],"categories_sizes":[],"default_left":[1,1,1,1,1,1,1,0,0,0,0,0,0,0,0],"id":27,"left_children":[1,3,5,7,9,11,13,-1,-1,-1,-1,-1,-1,-1,-1],"loss_changes":[2.6565802E2,2.4690979E1,1.3790904E2,4.6401978E1,9.386749E-1,9.420912E1,1.2943054E1,0E0,0E0,0E0,0E0,0E0,0E0,0E0,0E0],"parents":[2147483647,0,0,1,1,2,2,3,3,4,4,5,5,6,6],"right_children":[2,4,6,8,10,12,14,-1,-1,-1,-1,-1,-1,-1,-1],"split_conditions":[1.5812377E0,5E-1,5E-1,5E-1,5E-1,5E-1,5E-1,-4.929712E-3,-3.7635274E-2,-3.623567E-2,-4.5879133E-2,2.035998E-2,-1.4922788E-2,-1.0305273E-2,-2.9626582E-2],"split_indices":[14,20,8,8,25,2,16,0,0,0,0,0,0,0,0],"split_type":[0,0,0,0,0,0,0,0,0,0,0,0,0,0,0],"sum_hessian":[1.4621543E3,3.7252454E2,1.0896298E3,2.4276175E2,1.2976279E2,8.91324E2,1.9830582E2,1.3151614E2,1.1124559E2,7.911203E1,5.065076E1,7.700206E2,1.2130338E2,1.1230506E2,8.600076E1],"tree_param":{"num_deleted":"0","num_feature":"26","num_nodes":"15","size_leaf_vector":"0"}},{"base_weights":[1.5046331E-3,-2.84008E-1,6.563644E-1,-6.630527E-1,9.376361E-2,7.3203844E-1,-2.393303E-1,-7.867109E-2,-8.319813E-1,3.2156998E-1,-6.5553033E-1,5.318549E-1,1.0176513E0,1.7469206E-1,-7.3639345E-1],"categories":[],"categories_nodes":[],"categories_segments":[],"categories_sizes":[],"default_left":[1,1,1,1,1,1,1,0,0,0,0,0,0,0,0],"id":28,"left_children":[1,3,5,7,9,11,13,-1,-1,-1,-1,-1,-1,-1,-1],"loss_changes":[2.7253772E2,1.4541476E2,3.0172668E1,4.9966522E1,8.7140625E1,2.2805283E1,7.3791184E0,0E0,0E0,0E0,0E0,0E0,0E0,0E0,0E0],"parents":[2147483647,0,0,1,1,2,2,3,3,4,4,5,5,6,6],"right_children":[2,4,6,8,10,12,14,-1,-1,-1,-1,-1,-1,-1,-1],"split_conditions":[7.079762E0,5E-1,5E-1,5E-1,5E-1,7.565089E1,5E-1,-2.935484E-3,-3.104403E-2,1.1998861E-2,-2.446005E-2,1.9845303E-2,3.7972007E-2,6.5183504E-3,-2.7477326E-2],"split_indices":[14,19,5,4,5,12,16,0,0,0,0,0,0,0,0],"split_type":[0,0,0,0,0,0,0,0,0,0,0,0,0,0,0],"sum_hessian":[1.4556521E3,1.0140864E3,4.4156573E2,5.0581332E2,5.0827307E2,4.0733423E2,3.42315E1,1.1375651E2,3.9205682E2,3.9020932E2,1.1806374E2,2.4116559E2,1.6616864E2,1.9029593E1,1.5201905E1],"tree_param":{"num_deleted":"0","num_feature":"26","num_nodes":"15","size_leaf_vector":"0"}},{"base_weights":[-1.5800644E-2,1.4057708E-1,-1.0480106E0,3.1467625E-1,-7.217612E-1,-1.1362095E0,-6.576897E-1,4.3421924E-1,-4.5313448E-1,-9.368655E-1,9.2009395E-2,-1.3264835E0,-1.0515735E0,-3.3266634E-1,-1.108769E0],"categories":[],"categories_nodes":[],"categories_segments":[],"categories_sizes":[],"default_left":[1,1,1,1,1,1,1,0,0,0,0,0,0,0,0],"id":29,"left_children":[1,3,5,7,9,11,13,-1,-1,-1,-1,-1,-1,-1,-1],"loss_changes":[2.3318686E2,1.8859341E2,5.795868E0,9.607748E1,3.703147E1,1.0796051E0,5.115343E0,0E0,0E0,0E0,0E0,0E0,0E0,0E0,0E0],"parents":[2147483647,0,0,1,1,2,2,3,3,4,4,5,5,6,6],"right_children":[2,4,6,8,10,12,14,-1,-1,-1,-1,-1,-1,-1,-1],"split_conditions":[5E-1,5E-1,1.03325E2,5E-1,1.0225E2,4.55E1,7.15E1,1.6202185E-2,-1.6907977E-2,-3.4957614E-2,3.4331812E-3,-4.9495578E-2,-3.9237756E-2,-1.2412904E-2,-4.1371915E-2],"split_indices":[22,21,12,2,12,3,3,0,0,0,0,0,0,0,0],"split_type":[0,0,0,0,0,0,0,0,0,0,0,0,0,0,0],"sum_hessian":[1.4427323E3,1.253668E3,1.8906436E2,1.0436072E3,2.1006082E2,1.52658E2,3.640635E1,9.033899E2,1.4021727E2,1.6602429E2,4.4036533E1,4.248125E1,1.1017676E2,2.2169619E1,1.42367325E1],"tree_param":{"num_deleted":"0","num_feature":"26","num_nodes":"15","size_leaf_vector":"0"}},{"base_weights":[-6.273612E-3,1.4903827E-1,-1.0780864E0,3.2157725E-1,-6.771781E-1,-1.2845379E0,-9.853819E-1,4.628005E-1,-3.5944533E-1,-8.947182E-1,8.50581E-2,-1.0211866E0,-3.6498526E-1],"categories":[],"categories_nodes":[],"categories_segments":[],"categories_sizes":[],"default_left":[1,1,1,1,1,0,1,0,0,0,0,0,0],"id":30,"left_children":[1,3,5,7,9,-1,11,-1,-1,-1,-1,-1,-1],"loss_changes":[2.4162811E2,1.8095486E2,2.2503052E0,1.0110307E2,3.6447624E1,0E0,2.538887E0,0E0,0E0,0E0,0E0,0E0,0E0],"parents":[2147483647,0,0,1,1,2,2,3,3,4,4,6,6],"right_children":[2,4,6,8,10,-1,12,-1,-1,-1,-1,-1,-1],"split_conditions":[5E-1,5E-1,5.15E1,5E-1,1.0225E2,-4.7930446E-2,1.6418953E0,1.7268648E-2,-1.3412119E-2,-3.3384956E-2,3.1738048E-3,-3.810392E-2,-1.3618832E-2],"split_indices":[22,21,3,25,12,0,14,0,0,0,0,0,0],"split_type":[0,0,0,0,0,0,0,0,0,0,0,0,0],"sum_hessian":[1.4495576E3,1.2668453E3,1.8271228E2,1.0484979E3,2.1834734E2,5.263615E1,1.3007613E2,8.6868066E2,1.7981734E2,1.6973238E2,4.861497E1,1.2236793E2,7.708199E0],"tree_param":{"num_deleted":"0","num_feature":"26","num_nodes":"13","size_leaf_vector":"0"}},{"base_weights":[-1.7933429E-3,-2.6745853E-1,6.1631346E-1,-1.05168946E-1,-1.07203E0,6.971966E-1,-2.4401033E-1,1.2916844E-1,-9.072145E-1,-1.243096E0,-8.1346774E-1,4.068698E-1,8.677974E-1,-7.870058E-1,1.6275766E-1],"categories":[],"categories_nodes":[],"categories_segments":[],"categories_sizes":[],"default_left":[1,1,1,1,1,1,1,0,0,0,0,0,0,0,0],"id":31,"left_children":[1,3,5,7,9,11,13,-1,-1,-1,-1,-1,-1,-1,-1],"loss_changes":[2.3520874E2,1.3069449E2,3.0132126E1,1.570071E2,6.4215546E0,1.9153519E1,8.464423E0,0E0,0E0,0E0,0E0,0E0,0E0,0E0,0E0],"parents":[2147483647,0,0,1,1,2,2,3,3,4,4,5,5,6,6],"right_children":[2,4,6,8,10,12,14,-1,-1,-1,-1,-1,-1,-1,-1],"split_conditions":[7.079762E0,5E-1,5E-1,5E-1,2.475731E0,6.6362366E1,5E-1,4.8197103E-3,-3.3851236E-2,-4.6384107E-2,-3.0353228E-2,1.5181686E-2,3.238045E-2,-2.9365843E-2,6.073038E-3],"split_indices":[14,25,5,23,14,12,11,0,0,0,0,0,0,0,0],"split_type":[0,0,0,0,0,0,0,0,0,0,0,0,0,0,0],"sum_hessian":[1.4303665E3,1.0007897E3,4.2957678E2,8.3374603E2,1.6704366E2,3.9283417E2,3.674262E1,6.458763E2,1.8786972E2,9.82399E1,6.880376E1,1.4665054E2,2.4618362E2,1.5335907E1,2.1406713E1],"tree_param":{"num_deleted":"0","num_feature":"26","num_nodes":"15","size_leaf_vector":"0"}},{"base_weights":[2.5601306E-3,-2.47404E-1,5.8846176E-1,-4.452639E-2,-8.6830604E-1,2.7952048E-1,8.0234677E-1,9.906306E-2,-9.541127E-1,-1.1962652E0,-6.6447586E-1,4.1153303E-1,-4.3066502E-1,8.8211393E-1,2.1842477E-1],"categories":[],"categories_nodes":[],"categories_segments":[],"categories_sizes":[],"default_left":[1,1,1,1,1,1,1,0,0,0,0,0,0,0,0],"id":32,"left_children":[1,3,5,7,9,11,13,-1,-1,-1,-1,-1,-1,-1,-1],"loss_changes":[2.0713107E2,1.2484091E2,2.7722961E1,9.782385E1,1.552243E1,1.6542671E1,1.1423157E1,0E0,0E0,0E0,0E0,0E0,0E0,0E0,0E0],"parents":[2147483647,0,0,1,1,2,2,3,3,4,4,5,5,6,6],"right_children":[2,4,6,8,10,12,14,-1,-1,-1,-1,-1,-1,-1,-1],"split_conditions":[7.079762E0,5E-1,6.936441E1,5E-1,5.1025E1,5.5664276E1,5E-1,3.6963772E-3,-3.5601165E-2,-4.4636693E-2,-2.4793837E-2,1.5355687E-2,-1.6069565E-2,3.291465E-2,8.150165E-3],"split_indices":[14,2,12,25,12,12,6,0,0,0,0,0,0,0,0],"split_type":[0,0,0,0,0,0,0,0,0,0,0,0,0,0,0],"sum_hessian":[1.4123102E3,9.903664E2,4.2194382E2,7.472702E2,2.4309624E2,1.7355833E2,2.4838548E2,6.4615735E2,1.0111284E2,9.131042E1,1.5178583E2,1.4670808E2,2.685025E1,2.1808334E2,3.030214E1],"tree_param":{"num_deleted":"0","num_feature":"26","num_nodes":"15","size_leaf_vector":"0"}},{"base_weights":[-1.1835754E-2,-2.542962E-1,5.497617E-1,-5.8574516E-2,-8.505952E-1,6.388681E-1,-4.70943E-1,9.7774856E-2,-1.0200589E0,-1.1282202E0,-6.8285006E-1,8.238117E-1,3.647878E-1,-7.75478E-1,4.9432087E-1],"categories":[],"categories_nodes":[],"categories_segments":[],"categories_sizes":[],"default_left":[1,1,1,1,1,1,1,0,0,0,0,0,0,0,0],"id":33,"left_children":[1,3,5,7,9,11,13,-1,-1,-1,-1,-1,-1,-1,-1],"loss_changes":[1.9215126E2,1.1497809E2,3.9003998E1,1.11810295E2,1.0568726E1,1.9559372E1,1.0595945E1,0E0,0E0,0E0,0E0,0E0,0E0,0E0,0E0],"parents":[2147483647,0,0,1,1,2,2,3,3,4,4,5,5,6,6],"right_children":[2,4,6,8,10,12,14,-1,-1,-1,-1,-1,-1,-1,-1],"split_conditions":[7.0102224E0,5E-1,5E-1,5E-1,5.1025E1,5E-1,8.345E1,3.64831E-3,-3.806184E-2,-4.2097703E-2,-2.5479442E-2,3.0739196E-2,1.3611464E-2,-2.8935703E-2,1.844478E-2],"split_indices":[14,2,5,25,12,16,12,0,0,0,0,0,0,0,0],"split_type":[0,0,0,0,0,0,0,0,0,0,0,0,0,0,0],"sum_hessian":[1.4091361E3,9.8459894E2,4.245372E2,7.421147E2,2.424842E2,3.9079532E2,3.374189E1,6.390891E2,1.0302557E2,8.917318E1,1.5331104E2,2.321438E2,1.586515E2,2.5799057E1,7.942834E0],"tree_param":{"num_deleted":"0","num_feature":"26","num_nodes":"15","size_leaf_vector":"0"}},{"base_weights":[-1.3408654E-2,1.2926546E-1,-1.0215347E0,2.8533828E-1,-6.2461305E-1,-1.0920175E0,-6.797103E-1,3.80366E-1,-6.5521044E-1,-1.0487406E0,-2.2905663E-1,-1.0068057E0,-1.286042E0,-1.0179186E0,-2.6962808E-1],"categories":[],"categories_nodes":[],"categories_segments":[],"categories_sizes":[],"default_left":[1,1,1,1,1,1,1,0,0,0,0,0,0,0,0],"id":34,"left_children":[1,3,5,7,9,11,13,-1,-1,-1,-1,-1,-1,-1,-1],"loss_changes":[2.0214568E2,1.4504788E2,3.4556427E0,9.148305E1,3.52417E1,1.0662231E0,4.223956E0,0E0,0E0,0E0,0E0,0E0,0E0,0E0,0E0],"parents":[2147483647,0,0,1,1,2,2,3,3,4,4,5,5,6,6],"right_children":[2,4,6,8,10,12,14,-1,-1,-1,-1,-1,-1,-1,-1],"split_conditions":[5E-1,5E-1,1.03325E2,5E-1,5E-1,1.3225957E0,5E-1,1.41927395E-2,-2.4448114E-2,-3.913205E-2,-8.546876E-3,-3.7567317E-2,-4.7986567E-2,-3.798198E-2,-1.0060734E-2],"split_indices":[22,21,12,23,10,14,16,0,0,0,0,0,0,0,0],"split_type":[0,0,0,0,0,0,0,0,0,0,0,0,0,0,0],"sum_hessian":[1.4034965E3,1.2302572E3,1.7323926E2,1.01976117E3,2.1049605E2,1.4180496E2,3.1434286E1,9.2672565E2,9.303554E1,1.007826E2,1.0971345E2,1.02832146E2,3.8972816E1,1.6414488E1,1.5019797E1],"tree_param":{"num_deleted":"0","num_feature":"26","num_nodes":"15","size_leaf_vector":"0"}},{"base_weights":[-1.2585295E-2,1.22145265E-1,-9.8789036E-1,2.7314952E-1,-6.241717E-1,-1.0471319E0,-6.42233E-1,3.885288E-1,-4.694766E-1,-1.0058136E0,-2.6341254E-1,-1.0757481E0,-7.0880723E-1,6.51115E-2,-1.0690377E0],"categories":[],"categories_nodes":[],"categories_segments":[],"categories_sizes":[],"default_left":[1,1,1,1,1,1,1,0,0,0,0,0,0,0,0],"id":35,"left_children":[1,3,5,7,9,11,13,-1,-1,-1,-1,-1,-1,-1,-1],"loss_changes":[1.8275345E2,1.3789288E2,2.7841644E0,8.733144E1,2.8091324E1,6.173096E-1,8.306678E0,0E0,0E0,0E0,0E0,0E0,0E0,0E0,0E0],"parents":[2147483647,0,0,1,1,2,2,3,3,4,4,5,5,6,6],"right_children":[2,4,6,8,10,12,14,-1,-1,-1,-1,-1,-1,-1,-1],"split_conditions":[5E-1,5E-1,1.0589168E2,5E-1,5E-1,5E-1,1.1005E2,1.4497321E-2,-1.7517757E-2,-3.75303E-2,-9.828811E-3,-4.013979E-2,-2.644799E-2,2.42953E-3,-3.9889403E-2],"split_indices":[22,21,12,5,10,24,12,0,0,0,0,0,0,0,0],"split_type":[0,0,0,0,0,0,0,0,0,0,0,0,0,0,0],"sum_hessian":[1.3888634E3,1.2210587E3,1.6780469E2,1.01610205E3,2.0495659E2,1.4152039E2,2.6284292E1,8.798756E2,1.3622644E2,9.8726845E1,1.06229744E2,1.2847415E2,1.3046245E1,1.0210255E1,1.6074038E1],"tree_param":{"num_deleted":"0","num_feature":"26","num_nodes":"15","size_leaf_vector":"0"}},{"base_weights":[-3.5530985E-3,1.274547E-1,-9.734759E-1,2.7306005E-1,-5.8253396E-1,-1.0591469E0,-6.2965643E-1,3.850478E-1,-4.903723E-1,-9.924373E-1,-1.9503447E-1,-1.0923384E0,-6.4060444E-1,-2.7491328E-1,-9.9329853E-1],"categories":[],"categories_nodes":[],"categories_segments":[],"categories_sizes":[],"default_left":[1,1,1,1,1,1,1,0,0,0,0,0,0,0,0],"id":36,"left_children":[1,3,5,7,9,11,13,-1,-1,-1,-1,-1,-1,-1,-1],"loss_changes":[1.7589078E2,1.2623244E2,4.184967E0,8.676757E1,3.282241E1,1.1117249E0,4.2835608E0,0E0,0E0,0E0,0E0,0E0,0E0,0E0,0E0],"parents":[2147483647,0,0,1,1,2,2,3,3,4,4,5,5,6,6],"right_children":[2,4,6,8,10,12,14,-1,-1,-1,-1,-1,-1,-1,-1],"split_conditions":[5E-1,5E-1,1.03325E2,5E-1,5E-1,5E-1,1.10025E2,1.4367433E-2,-1.8297445E-2,-3.7031185E-2,-7.2773946E-3,-4.0758833E-2,-2.3903115E-2,-1.0257943E-2,-3.7063323E-2],"split_indices":[22,21,12,8,10,24,12,0,0,0,0,0,0,0,0],"split_type":[0,0,0,0,0,0,0,0,0,0,0,0,0,0,0],"sum_hessian":[1.3822552E3,1.2185358E3,1.6371944E2,1.0116755E3,2.0686028E2,1.2939659E2,3.4322853E1,8.826896E2,1.2898592E2,9.9765526E1,1.0709474E2,1.1839748E2,1.0999118E1,1.8262888E1,1.6059965E1],"tree_param":{"num_deleted":"0","num_feature":"26","num_nodes":"15","size_leaf_vector":"0"}},{"base_weights":[1.8210178E-2,1.8883732E-1,-6.619572E-1,3.409525E-1,-5.1287305E-1,-8.2634246E-1,-9.8941036E-2,5.062338E-1,-5.667885E-1,-8.6841303E-1,-3.2591322E-1,-1.0995901E0,-6.589416E-1,-3.7864137E-1,2.5614074E-1],"categories":[],"categories_nodes":[],"categories_segments":[],"categories_sizes":[],"default_left":[1,1,1,1,1,1,1,0,0,0,0,0,0,0,0],"id":37,"left_children":[1,3,5,7,9,11,13,-1,-1,-1,-1,-1,-1,-1,-1],"loss_changes":[1.6029146E2,1.1802642E2,2.5554985E1,1.365151E2,1.2818615E1,9.076294E0,6.426933E0,0E0,0E0,0E0,0E0,0E0,0E0,0E0,0E0],"parents":[2147483647,0,0,1,1,2,2,3,3,4,4,5,5,6,6],"right_children":[2,4,6,8,10,12,14,-1,-1,-1,-1,-1,-1,-1,-1],"split_conditions":[5E-1,5E-1,4.7126713E0,5E-1,1.6130993E0,5.1574997E1,5E-1,1.8889293E-2,-2.1148792E-2,-3.240342E-2,-1.2160922E-2,-4.1029416E-2,-2.4587337E-2,-1.4128388E-2,9.557475E-3],"split_indices":[2,5,14,20,14,12,19,0,0,0,0,0,0,0,0],"split_type":[0,0,0,0,0,0,0,0,0,0,0,0,0,0,0],"sum_hessian":[1.3790908E3,1.1030912E3,2.7599966E2,9.069901E2,1.9610109E2,2.1326457E2,6.2735104E1,7.676574E2,1.3933266E2,6.6325516E1,1.2977557E2,7.8902985E1,1.3436159E2,3.5055386E1,2.7679716E1],"tree_param":{"num_deleted":"0","num_feature":"26","num_nodes":"15","size_leaf_vector":"0"}},{"base_weights":[-3.8319568E-3,-2.1507558E-1,4.9252227E-1,-7.5887784E-2,-9.715796E-1,5.871297E-1,-4.6908644E-1,1.2576222E-1,-7.816611E-1,-1.0141882E0,-2.8373054E-1,2.590316E-1,7.918217E-1,4.040548E-2,-1.1123593E0],"categories":[],"categories_nodes":[],"categories_segments":[],"categories_sizes":[],"default_left":[1,1,1,1,1,1,1,0,0,0,0,0,0,0,0],"id":38,"left_children":[1,3,5,7,9,11,13,-1,-1,-1,-1,-1,-1,-1,-1],"loss_changes":[1.4458551E2,1.0177633E2,3.772722E1,1.16521996E2,4.115158E0,2.4995651E1,1.2312332E1,0E0,0E0,0E0,0E0,0E0,0E0,0E0,0E0],"parents":[2147483647,0,0,1,1,2,2,3,3,4,4,5,5,6,6],"right_children":[2,4,6,8,10,12,14,-1,-1,-1,-1,-1,-1,-1,-1],"split_conditions":[7.079762E0,5E-1,5E-1,5E-1,5E-1,6.6325E1,5E-1,4.692613E-3,-2.9166413E-2,-3.7842784E-2,-1.0586944E-2,9.665343E-3,2.9545542E-2,1.5076648E-3,-4.150588E-2],"split_indices":[14,25,8,23,0,12,16,0,0,0,0,0,0,0,0],"split_type":[0,0,0,0,0,0,0,0,0,0,0,0,0,0,0],"sum_hessian":[1.3769426E3,9.6627277E2,4.106698E2,8.1704626E2,1.4922655E2,3.742398E2,3.6429977E1,6.3611926E2,1.8092699E2,1.4007518E2,9.151354E0,1.4464914E2,2.2959068E2,2.0851854E1,1.5578123E1],"tree_param":{"num_deleted":"0","num_feature":"26","num_nodes":"15","size_leaf_vector":"0"}},{"base_weights":[-9.615315E-3,-6.383187E-1,1.8774734E-1,-4.4743973E-1,-9.5662117E-1,3.6043313E-1,-3.4510776E-1,-1.0351936E0,-2.6795834E-1,-1.0022607E0,-5.990463E-1,4.8584148E-1,-5.316722E-1,-7.3405594E-1,-1.9141811E-1],"categories":[],"categories_nodes":[],"categories_segments":[],"categories_sizes":[],"default_left":[1,1,1,1,1,1,1,0,0,0,0,0,0,0,0],"id":39,"left_children":[1,3,5,7,9,11,13,-1,-1,-1,-1,-1,-1,-1,-1],"loss_changes":[1.6927087E2,1.9374237E1,9.566409E1,2.1413918E1,1.3791962E0,8.804297E1,1.508112E1,0E0,0E0,0E0,0E0,0E0,0E0,0E0,0E0],"parents":[2147483647,0,0,1,1,2,2,3,3,4,4,5,5,6,6],"right_children":[2,4,6,8,10,12,14,-1,-1,-1,-1,-1,-1,-1,-1],"split_conditions":[1.5737891E0,5E-1,5E-1,2.1116722E1,1.03325E2,5E-1,7.630159E1,-3.8626567E-2,-9.9984305E-3,-3.739773E-2,-2.2352438E-2,1.8128386E-2,-1.9838484E-2,-2.7390106E-2,-7.142456E-3],"split_indices":[14,22,6,12,12,20,12,0,0,0,0,0,0,0,0],"split_type":[0,0,0,0,0,0,0,0,0,0,0,0,0,0,0],"sum_hessian":[1.3622134E3,3.249245E2,1.037289E3,2.0462253E2,1.2030197E2,7.8365E2,2.5363892E2,4.6752567E1,1.5786995E2,1.0508622E2,1.5215751E1,6.8746454E2,9.618544E1,7.076784E1,1.8287106E2],"tree_param":{"num_deleted":"0","num_feature":"26","num_nodes":"15","size_leaf_vector":"0"}},{"base_weights":[1.35201095E-2,1.3734692E-1,-9.665949E-1,2.726521E-1,-5.535491E-1,-1.0368353E0,-6.7867595E-1,3.808772E-1,-4.411784E-1,-9.652938E-1,-1.6890356E-1,-1.0598762E0,-6.4674175E-1,-2.7904373E-1,-8.993917E-1],"categories":[],"categories_nodes":[],"categories_segments":[],"categories_sizes":[],"default_left":[1,1,1,1,1,1,1,0,0,0,0,0,0,0,0],"id":40,"left_children":[1,3,5,7,9,11,13,-1,-1,-1,-1,-1,-1,-1,-1],"loss_changes":[1.6461023E2,1.1271209E2,2.3730927E0,7.800759E1,3.1119717E1,3.9675903E-1,2.6361141E0,0E0,0E0,0E0,0E0,0E0,0E0,0E0,0E0],"parents":[2147483647,0,0,1,1,2,2,3,3,4,4,5,5,6,6],"right_children":[2,4,6,8,10,12,14,-1,-1,-1,-1,-1,-1,-1,-1],"split_conditions":[5E-1,5E-1,1.03325E2,5E-1,5E-1,5E-1,1.08775E2,1.4211814E-2,-1.6461857E-2,-3.601837E-2,-6.302362E-3,-3.954756E-2,-2.4132118E-2,-1.0412063E-2,-3.355934E-2],"split_indices":[22,21,12,5,10,0,12,0,0,0,0,0,0,0,0],"split_type":[0,0,0,0,0,0,0,0,0,0,0,0,0,0,0],"sum_hessian":[1.3542354E3,1.203097E3,1.5113829E2,1.00657465E3,1.9652234E2,1.1940679E2,3.17315E1,8.7446234E2,1.3211234E2,9.418849E1,1.0233385E2,1.1112616E2,8.28063E0,1.2095472E1,1.9636028E1],"tree_param":{"num_deleted":"0","num_feature":"26","num_nodes":"15","size_leaf_vector":"0"}},{"base_weights":[-2.3918107E-2,-6.929214E-1,1.4746052E-1,-2.676207E-1,-8.138155E-1,2.903232E-1,-5.189595E-1,2.2337298E-1,-1.1145641E0,-9.8207414E-1,-6.4047104E-1,3.935562E-1,-5.027982E-1,-6.796912E-1,-1.1803086E-1],"categories":[],"categories_nodes":[],"categories_segments":[],"categories_sizes":[],"default_left":[1,1,1,1,1,1,1,0,0,0,0,0,0,0,0],"id":41,"left_children":[1,3,5,7,9,11,13,-1,-1,-1,-1,-1,-1,-1,-1],"loss_changes":[1.5499776E2,1.3956833E1,1.02622696E2,2.6243107E1,5.6177673E0,7.281826E1,1.2186966E1,0E0,0E0,0E0,0E0,0E0,0E0,0E0,0E0],"parents":[2147483647,0,0,1,1,2,2,3,3,4,4,5,5,6,6],"right_children":[2,4,6,8,10,12,14,-1,-1,-1,-1,-1,-1,-1,-1],"split_conditions":[1.4844491E0,5E-1,5E-1,5E-1,1.0788889E0,5E-1,4.2979703E0,8.3348E-3,-4.1588146E-2,-3.66445E-2,-2.3898136E-2,1.4684911E-2,-1.8761098E-2,-2.5361573E-2,-4.40413E-3],"split_indices":[14,4,5,8,14,20,14,0,0,0,0,0,0,0,0],"split_type":[0,0,0,0,0,0,0,0,0,0,0,0,0,0,0],"sum_hessian":[1.3499962E3,2.7468338E2,1.0753129E3,6.1509388E1,2.13174E2,8.859526E2,1.8936026E2,3.9402855E1,2.2106535E1,1.058064E2,1.073676E2,7.8436334E2,1.0158926E2,1.3467426E2,5.4686005E1],"tree_param":{"num_deleted":"0","num_feature":"26","num_nodes":"15","size_leaf_vector":"0"}},{"base_weights":[-1.4455484E-2,1.0050337E-1,-9.270611E-1,2.3896131E-1,-6.1166596E-1,-9.9402887E-1,-5.6445456E-1,3.3245933E-1,-6.4376307E-1,-8.174998E-1,1.1750295E-1,-9.353924E-1,-1.2865195E0,9.157297E-2,-9.498728E-1],"categories":[],"categories_nodes":[],"categories_segments":[],"categories_sizes":[],"default_left":[1,1,1,1,1,1,1,0,0,0,0,0,0,0,0],"id":42,"left_children":[1,3,5,7,9,11,13,-1,-1,-1,-1,-1,-1,-1,-1],"loss_changes":[1.4179065E2,1.18515236E2,3.110489E0,8.32219E1,2.9464767E1,9.629822E-1,6.63188E0,0E0,0E0,0E0,0E0,0E0,0E0,0E0,0E0],"parents":[2147483647,0,0,1,1,2,2,3,3,4,4,5,5,6,6],"right_children":[2,4,6,8,10,12,14,-1,-1,-1,-1,-1,-1,-1,-1],"split_conditions":[5E-1,5E-1,1.0589168E2,5E-1,1.03225E2,1.8202282E0,1.10025E2,1.2405179E-2,-2.4020974E-2,-3.0503677E-2,4.3844315E-3,-3.4902647E-2,-4.8004385E-2,3.4168966E-3,-3.544296E-2],"split_indices":[22,21,12,23,12,14,12,0,0,0,0,0,0,0,0],"split_type":[0,0,0,0,0,0,0,0,0,0,0,0,0,0,0],"sum_hessian":[1.3496305E3,1.1994308E3,1.501997E2,1.0047539E3,1.9467694E2,1.2531469E2,2.4885021E1,9.090869E2,9.566697E1,1.5172578E2,4.2951145E1,1.0788473E2,1.7429958E1,9.491601E0,1.5393421E1],"tree_param":{"num_deleted":"0","num_feature":"26","num_nodes":"15","size_leaf_vector":"0"}},{"base_weights":[-1.5472276E-2,9.8638974E-2,-9.083427E-1,2.0111948E-1,-6.576988E-1,-9.81035E-1,-5.970378E-1,3.5781962E-1,-4.1950473E-1,-1.175613E0,-4.6744156E-1,-1.1560237E0,-8.74332E-1,-2.0483515E-1,-9.422803E-1],"categories":[],"categories_nodes":[],"categories_segments":[],"categories_sizes":[],"default_left":[1,1,1,1,1,1,1,0,0,0,0,0,0,0,0],"id":43,"left_children":[1,3,5,7,9,11,13,-1,-1,-1,-1,-1,-1,-1,-1],"loss_changes":[1.3519272E2,9.133451E1,2.8168945E0,1.01001526E2,1.3308815E1,1.2362747E0,4.0071125E0,0E0,0E0,0E0,0E0,0E0,0E0,0E0,0E0],"parents":[2147483647,0,0,1,1,2,2,3,3,4,4,5,5,6,6],"right_children":[2,4,6,8,10,12,14,-1,-1,-1,-1,-1,-1,-1,-1],"split_conditions":[5E-1,5E-1,1.033E2,5E-1,5.275E1,5.15E1,1.09675E2,1.3351458E-2,-1.5653137E-2,-4.386609E-2,-1.7441822E-2,-4.3135148E-2,-3.262428E-2,-7.6430906E-3,-3.515966E-2],"split_indices":[22,23,12,25,12,3,12,0,0,0,0,0,0,0,0],"split_type":[0,0,0,0,0,0,0,0,0,0,0,0,0,0,0],"sum_hessian":[1.3250153E3,1.1756531E3,1.493621E2,1.0360121E3,1.3964107E2,1.1934314E2,3.0018974E1,8.2750134E2,2.0851068E2,3.6124542E1,1.03516525E2,4.1481335E1,7.78618E1,1.4799613E1,1.5219361E1],"tree_param":{"num_deleted":"0","num_feature":"26","num_nodes":"15","size_leaf_vector":"0"}},{"base_weights":[-3.0372355E-3,1.5218177E-1,-6.315893E-1,2.580986E-1,-6.0176116E-1,-7.8409886E-1,-3.4928758E-2,4.0389246E-1,-3.9097884E-1,-5.043563E-1,-1.1495273E0,-9.358061E-1,-5.3489655E-1,1.3244502E-1,-4.3731862E-1],"categories":[],"categories_nodes":[],"categories_segments":[],"categories_sizes":[],"default_left":[1,1,1,1,1,1,1,0,0,0,0,0,0,0,0],"id":44,"left_children":[1,3,5,7,9,11,13,-1,-1,-1,-1,-1,-1,-1,-1],"loss_changes":[1.3016156E2,8.5594765E1,2.4014862E1,8.900136E1,6.468071E0,7.4529724E0,3.7508564E0,0E0,0E0,0E0,0E0,0E0,0E0,0E0,0E0],"parents":[2147483647,0,0,1,1,2,2,3,3,4,4,5,5,6,6],"right_children":[2,4,6,8,10,12,14,-1,-1,-1,-1,-1,-1,-1,-1],"split_conditions":[5E-1,5E-1,5.096389E0,5E-1,5E-1,5E-1,5E-1,1.5070591E-2,-1.4588741E-2,-1.8819237E-2,-4.2892743E-2,-3.4918085E-2,-1.9958796E-2,4.941971E-3,-1.6317833E-2],"split_indices":[2,23,14,25,20,19,9,0,0,0,0,0,0,0,0],"split_type":[0,0,0,0,0,0,0,0,0,0,0,0,0,0,0],"sum_hessian":[1.33214E3,1.0689291E3,2.632109E2,9.3783594E2,1.3109315E2,2.093785E2,5.38324E1,7.6612823E2,1.7170769E2,1.12932106E2,1.8161053E1,1.2843547E2,8.094302E1,3.849238E1,1.5340023E1],"tree_param":{"num_deleted":"0","num_feature":"26","num_nodes":"15","size_leaf_vector":"0"}},{"base_weights":[-2.1698661E-2,-2.1768737E-1,4.6885857E-1,-5.6540843E-2,-7.5337255E-1,5.47009E-1,-3.1074128E-1,6.904098E-2,-8.4948784E-1,-1.0512874E0,-5.6103307E-1,3.6707145E-1,8.273072E-1,2.297069E-1,-9.263014E-1],"categories":[],"categories_nodes":[],"categories_segments":[],"categories_sizes":[],"default_left":[1,1,1,1,1,1,1,0,0,0,0,0,0,0,0],"id":45,"left_children":[1,3,5,7,9,11,13,-1,-1,-1,-1,-1,-1,-1,-1],"loss_changes":[1.2780346E2,8.1943085E1,2.3290764E1,7.287061E1,1.1990776E1,1.711071E1,1.1927494E1,0E0,0E0,0E0,0E0,0E0,0E0,0E0,0E0],"parents":[2147483647,0,0,1,1,2,2,3,3,4,4,5,5,6,6],"right_children":[2,4,6,8,10,12,14,-1,-1,-1,-1,-1,-1,-1,-1],"split_conditions":[7.4525E0,5E-1,5E-1,5E-1,5.460308E1,7.565089E1,5E-1,2.5761519E-3,-3.169726E-2,-3.9227083E-2,-2.0934038E-2,1.3696675E-2,3.0869626E-2,8.57114E-3,-3.4563433E-2],"split_indices":[14,2,8,25,12,12,16,0,0,0,0,0,0,0,0],"split_type":[0,0,0,0,0,0,0,0,0,0,0,0,0,0,0],"sum_hessian":[1.3272351E3,9.4874585E2,3.784892E2,7.3019257E2,2.185533E2,3.4427585E2,3.4213337E1,6.311483E2,9.904426E1,8.399209E1,1.345612E2,2.1108156E2,1.3319429E2,1.855196E1,1.5661378E1],"tree_param":{"num_deleted":"0","num_feature":"26","num_nodes":"15","size_leaf_vector":"0"}},{"base_weights":[-1.3669073E-3,1.1281241E-1,-9.4509125E-1,2.3111981E-1,-5.072661E-1,-9.809443E-1,-6.299992E-1,3.2718033E-1,-4.2797148E-1,-9.3065125E-1,-1.5892099E-1,-1.0745006E0,-8.840179E-1,-2.5751972E-1,-8.6662495E-1],"categories":[],"categories_nodes":[],"categories_segments":[],"categories_sizes":[],"default_left":[1,1,1,1,1,1,1,0,0,0,0,0,0,0,0],"id":46,"left_children":[1,3,5,7,9,11,13,-1,-1,-1,-1,-1,-1,-1,-1],"loss_changes":[1.4102806E2,8.576867E1,9.7779846E-1,6.2260376E1,2.7488148E1,1.8392944E-1,1.2951217E0,0E0,0E0,0E0,0E0,0E0,0E0,0E0,0E0],"parents":[2147483647,0,0,1,1,2,2,3,3,4,4,5,5,6,6],"right_children":[2,4,6,8,10,12,14,-1,-1,-1,-1,-1,-1,-1,-1],"split_conditions":[5E-1,5E-1,5E-1,5E-1,5E-1,6.35E1,5E-1,1.2208203E-2,-1.596906E-2,-3.472574E-2,-5.9298784E-3,-4.0093243E-2,-3.298569E-2,-9.60893E-3,-3.23367E-2],"split_indices":[22,21,24,8,10,3,8,0,0,0,0,0,0,0,0],"split_type":[0,0,0,0,0,0,0,0,0,0,0,0,0,0,0],"sum_hessian":[1.3068094E3,1.1665513E3,1.4025824E2,9.801681E2,1.8638315E2,1.2403196E2,1.622628E1,8.5592346E2,1.2424461E2,8.337544E1,1.03007706E2,5.7981102E1,6.605085E1,7.1148643E0,9.111416E0],"tree_param":{"num_deleted":"0","num_feature":"26","num_nodes":"15","size_leaf_vector":"0"}},{"base_weights":[7.5772787E-3,1.10755265E-1,-8.833435E-1,2.1099915E-1,-6.21565E-1,-9.391185E-1,-6.026267E-1,3.6437744E-1,-3.965133E-1,-3.516086E-1,-9.1672856E-1,-9.9158025E-1,-4.6219268E-1,-2.1455914E-1,-1.1156696E0],"categories":[],"categories_nodes":[],"categories_segments":[],"categories_sizes":[],"default_left":[1,1,1,1,1,1,1,0,0,0,0,0,0,0,0],"id":47,"left_children":[1,3,5,7,9,11,13,-1,-1,-1,-1,-1,-1,-1,-1],"loss_changes":[1.2037744E2,8.628273E1,1.5621414E0,9.6398926E1,1.0956898E1,2.333931E0,4.8017225E0,0E0,0E0,0E0,0E0,0E0,0E0,0E0,0E0],"parents":[2147483647,0,0,1,1,2,2,3,3,4,4,5,5,6,6],"right_children":[2,4,6,8,10,12,14,-1,-1,-1,-1,-1,-1,-1,-1],"split_conditions":[5E-1,5E-1,1.0589168E2,5E-1,5E-1,5E-1,7.15E1,1.3596152E-2,-1.479525E-2,-1.3119704E-2,-3.4206238E-2,-3.6999207E-2,-1.7245969E-2,-8.005925E-3,-4.16294E-2],"split_indices":[22,23,12,25,16,24,3,0,0,0,0,0,0,0,0],"split_type":[0,0,0,0,0,0,0,0,0,0,0,0,0,0,0],"sum_hessian":[1.3074763E3,1.1725575E3,1.349188E2,1.0320033E3,1.405542E2,1.10598755E2,2.4320034E1,8.2429443E2,2.0770888E2,7.455629E1,6.59979E1,9.866637E1,1.1932394E1,1.4653945E1,9.666088E0],"tree_param":{"num_deleted":"0","num_feature":"26","num_nodes":"15","size_leaf_vector":"0"}},{"base_weights":[3.5038388E-3,1.5892227E-1,-6.056632E-1,3.2446462E-1,-5.975262E-1,-7.332798E-1,-3.2634172E-1,4.8652193E-1,-4.1840813E-1,-7.783841E-1,2.174604E-1,-3.410816E-1,-8.083649E-1,7.6440024E-1,-5.5310833E-1],"categories":[],"categories_nodes":[],"categories_segments":[],"categories_sizes":[],"default_left":[1,1,1,1,1,1,1,0,0,0,0,0,0,0,0],"id":48,"left_children":[1,3,5,7,9,11,13,-1,-1,-1,-1,-1,-1,-1,-1],"loss_changes":[1.2238298E2,1.2915933E2,9.12709E0,1.0200495E2,2.7476715E1,5.011902E0,2.1250214E1,0E0,0E0,0E0,0E0,0E0,0E0,0E0,0E0],"parents":[2147483647,0,0,1,1,2,2,3,3,4,4,5,5,6,6],"right_children":[2,4,6,8,10,12,14,-1,-1,-1,-1,-1,-1,-1,-1],"split_conditions":[5E-1,5E-1,9.382104E1,5E-1,9.777636E0,5.0225E1,2.95E1,1.8153775E-2,-1.5612219E-2,-2.9044138E-2,8.114181E-3,-1.2726906E-2,-3.0162824E-2,2.8522354E-2,-2.063834E-2],"split_indices":[5,20,12,8,14,12,3,0,0,0,0,0,0,0,0],"split_type":[0,0,0,0,0,0,0,0,0,0,0,0,0,0,0],"sum_hessian":[1.2906368E3,1.028876E3,2.617608E2,8.446111E2,1.8426494E2,1.785565E2,8.3204315E1,6.9363916E2,1.5097194E2,1.5083685E2,3.3428078E1,2.958183E1,1.4897467E2,1.391287E1,6.929144E1],"tree_param":{"num_deleted":"0","num_feature":"26","num_nodes":"15","size_leaf_vector":"0"}},{"base_weights":[-1.41282175E-2,1.3152878E-1,-6.113767E-1,2.624255E-1,-4.702823E-1,-7.31785E-1,-1.8401629E-1,3.6162114E-1,-5.889922E-1,-6.313134E-1,-1.3873719E-1,-1.0583452E0,-5.351941E-1,8.895149E-2,-4.756285E-1],"categories":[],"categories_nodes":[],"categories_segments":[],"categories_sizes":[],"default_left":[1,1,1,1,1,1,1,0,0,0,0,0,0,0,0],"id":49,"left_children":[1,3,5,7,9,11,13,-1,-1,-1,-1,-1,-1,-1,-1],"loss_changes":[1.117533E2,8.148474E1,1.2825645E1,7.191347E1,9.78252E0,1.2027046E1,4.555626E0,0E0,0E0,0E0,0E0,0E0,0E0,0E0,0E0],"parents":[2147483647,0,0,1,1,2,2,3,3,4,4,5,5,6,6],"right_children":[2,4,6,8,10,12,14,-1,-1,-1,-1,-1,-1,-1,-1],"split_conditions":[5E-1,5E-1,5.0967607E0,5E-1,9.3675E1,5.1525E1,5E-1,1.3493305E-2,-2.1977287E-2,-2.3556434E-2,-5.176753E-3,-3.949043E-2,-1.99699E-2,3.3190805E-3,-1.7747305E-2],"split_indices":[2,5,14,23,12,12,16,0,0,0,0,0,0,0,0],"split_type":[0,0,0,0,0,0,0,0,0,0,0,0,0,0,0],"sum_hessian":[1.2826935E3,1.0318304E3,2.508631E2,8.479592E2,1.8387119E2,1.9516364E2,5.5699455E1,7.599907E2,8.796854E1,1.2315215E2,6.071903E1,7.169179E1,1.2347185E2,2.9128384E1,2.6571072E1],"tree_param":{"num_deleted":"0","num_feature":"26","num_nodes":"15","size_leaf_vector":"0"}},{"base_weights":[8.036932E-3,1.441407E-1,-5.622002E-1,2.6934502E-1,-4.2659536E-1,-6.50047E-1,3.2377934E-1,4.018674E-1,-4.942485E-1,-1.2060262E0,-3.6084598E-1,-9.190784E-1,-4.9211165E-1,5.5452365E-1,7.6554395E-2],"categories":[],"categories_nodes":[],"categories_segments":[],"categories_sizes":[],"default_left":[1,1,1,1,1,1,1,0,0,0,0,0,0,0,0],"id":50,"left_children":[1,3,5,7,9,11,13,-1,-1,-1,-1,-1,-1,-1,-1],"loss_changes":[9.958084E1,7.4131E1,1.9452934E1,8.621867E1,9.134304E0,9.119141E0,1.2678959E0,0E0,0E0,0E0,0E0,0E0,0E0,0E0,0E0],"parents":[2147483647,0,0,1,1,2,2,3,3,4,4,5,5,6,6],"right_children":[2,4,6,8,10,12,14,-1,-1,-1,-1,-1,-1,-1,-1],"split_conditions":[5E-1,5E-1,1.23625E1,5E-1,1.0214336E0,5.0737476E1,5E-1,1.4995029E-2,-1.844208E-2,-4.5000907E-2,-1.3464382E-2,-3.4293916E-2,-1.8362347E-2,2.0691149E-2,2.856503E-3],"split_indices":[2,5,14,20,14,12,1,0,0,0,0,0,0,0,0],"split_type":[0,0,0,0,0,0,0,0,0,0,0,0,0,0,0],"sum_hessian":[1.2810253E3,1.0347897E3,2.462356E2,8.490572E2,1.8573248E2,2.2426549E2,2.1970114E1,7.2389777E2,1.2515944E2,1.3099592E1,1.7263289E2,8.11733E1,1.430922E2,1.0720903E1,1.124921E1],"tree_param":{"num_deleted":"0","num_feature":"26","num_nodes":"15","size_leaf_vector":"0"}},{"base_weights":[-1.3661378E-2,8.287886E-2,-8.9247596E-1,1.7611352E-1,-5.9490114E-1,-9.630055E-1,-5.388538E-1,3.1736246E-1,-3.8224164E-1,-2.9218966E-1,-9.1328436E-1,-1.0068845E0,-5.370128E-1,1.8831281E-1,-9.96836E-1],"categories":[],"categories_nodes":[],"categories_segments":[],"categories_sizes":[],"default_left":[1,1,1,1,1,1,1,0,0,0,0,0,0,0,0],"id":51,"left_children":[1,3,5,7,9,11,13,-1,-1,-1,-1,-1,-1,-1,-1],"loss_changes":[1.0812286E2,7.267552E1,2.6271057E0,7.980126E1,1.3139267E1,1.4012985E0,7.929141E0,0E0,0E0,0E0,0E0,0E0,0E0,0E0,0E0],"parents":[2147483647,0,0,1,1,2,2,3,3,4,4,5,5,6,6],"right_children":[2,4,6,8,10,12,14,-1,-1,-1,-1,-1,-1,-1,-1],"split_conditions":[5E-1,5E-1,1.05850006E2,5E-1,5E-1,5E-1,6.95E1,1.1841864E-2,-1.4262726E-2,-1.0902583E-2,-3.4077723E-2,-3.7570257E-2,-2.0037761E-2,7.0265867E-3,-3.7195317E-2],"split_indices":[22,23,12,25,16,24,3,0,0,0,0,0,0,0,0],"split_type":[0,0,0,0,0,0,0,0,0,0,0,0,0,0,0],"sum_hessian":[1.2725461E3,1.1474061E3,1.25140076E2,1.0093071E3,1.38099E2,1.0289461E2,2.2245468E1,8.0587415E2,2.03433E2,7.177484E1,6.632415E1,9.204952E1,1.0845086E1,8.823954E0,1.3421515E1],"tree_param":{"num_deleted":"0","num_feature":"26","num_nodes":"15","size_leaf_vector":"0"}},{"base_weights":[-1.2692855E-2,-1.6699457E-1,5.1632386E-1,-7.1922466E-2,-8.2797676E-1,5.8884126E-1,-4.6924448E-1,-2.1071053E-1,4.134927E-1,-9.0779895E-1,-5.4524696E-1,4.0609848E-1,8.708837E-1,-1.0687666E0,5.318497E-2],"categories":[],"categories_nodes":[],"categories_segments":[],"categories_sizes":[],"default_left":[1,1,1,1,1,1,1,0,0,0,0,0,0,0,0],"id":52,"left_children":[1,3,5,7,9,11,13,-1,-1,-1,-1,-1,-1,-1,-1],"loss_changes":[1.05006996E2,6.2521114E1,2.1038048E1,5.8815166E1,2.3290176E0,1.3615372E1,6.4668975E0,0E0,0E0,0E0,0E0,0E0,0E0,0E0,0E0],"parents":[2147483647,0,0,1,1,2,2,3,3,4,4,5,5,6,6],"right_children":[2,4,6,8,10,12,14,-1,-1,-1,-1,-1,-1,-1,-1],"split_conditions":[9.877501E0,5E-1,5E-1,9.705795E1,1.03325E2,7.566899E1,5E-1,-7.862321E-3,1.54288085E-2,-3.3873044E-2,-2.0345004E-2,1.5152905E-2,3.249561E-2,-3.987929E-2,1.9845108E-3],"split_indices":[14,22,5,12,12,12,11,0,0,0,0,0,0,0,0],"split_type":[0,0,0,0,0,0,0,0,0,0,0,0,0,0,0],"sum_hessian":[1.2843501E3,9.948578E2,2.8949228E2,8.707261E2,1.2413172E2,2.7002646E2,1.9465813E1,6.775651E2,1.9316092E2,9.507786E1,2.905386E1,1.6533888E2,1.0468758E2,8.577177E0,1.0888636E1],"tree_param":{"num_deleted":"0","num_feature":"26","num_nodes":"15","size_leaf_vector":"0"}},{"base_weights":[7.624417E-3,-1.6208184E-1,4.305827E-1,-4.7916256E-2,-8.2695127E-1,2.3606233E-1,7.644326E-1,1.1510916E-1,-5.000557E-1,-1.0276527E0,-6.0852146E-1,7.7373676E-2,7.323142E-1,8.5494953E-1,2.4005836E-1],"categories":[],"categories_nodes":[],"categories_segments":[],"categories_sizes":[],"default_left":[1,1,1,1,1,1,1,0,0,0,0,0,0,0,0],"id":53,"left_children":[1,3,5,7,9,11,13,-1,-1,-1,-1,-1,-1,-1,-1],"loss_changes":[9.044989E1,6.822388E1,2.3251686E1,5.6710743E1,5.1496964E0,1.8011082E1,6.078682E0,0E0,0E0,0E0,0E0,0E0,0E0,0E0,0E0],"parents":[2147483647,0,0,1,1,2,2,3,3,4,4,5,5,6,6],"right_children":[2,4,6,8,10,12,14,-1,-1,-1,-1,-1,-1,-1,-1],"split_conditions":[7.603846E0,5E-1,7.868611E1,5E-1,2.15375E0,2.51125E1,5E-1,4.295111E-3,-1.8658765E-2,-3.834519E-2,-2.2705989E-2,2.887073E-3,2.7325116E-2,3.1901054E-2,8.957388E-3],"split_indices":[14,25,12,8,14,14,6,0,0,0,0,0,0,0,0],"split_type":[0,0,0,0,0,0,0,0,0,0,0,0,0,0,0],"sum_hessian":[1.2581499E3,8.9832574E2,3.598242E2,7.675934E2,1.3073238E2,2.2843297E2,1.3139124E2,5.647206E2,2.0287277E2,6.620031E1,6.4532074E1,1.7396071E2,5.4472263E1,1.11511765E2,1.9879469E1],"tree_param":{"num_deleted":"0","num_feature":"26","num_nodes":"15","size_leaf_vector":"0"}},{"base_weights":[1.0483612E-3,1.3440898E-1,-5.623602E-1,2.5637102E-1,-3.8453665E-1,-8.114128E-1,-3.2366678E-1,3.8450867E-1,-4.5738396E-1,-6.267852E-1,2.270993E-1,-7.31809E-1,-1.2460363E0,-1.987961E-1,-7.540283E-1],"categories":[],"categories_nodes":[],"categories_segments":[],"categories_sizes":[],"default_left":[1,1,1,1,1,1,1,0,0,0,0,0,0,0,0],"id":54,"left_children":[1,3,5,7,9,11,13,-1,-1,-1,-1,-1,-1,-1,-1],"loss_changes":[9.494512E1,6.476815E1,1.4115173E1,7.589761E1,2.9011187E1,3.1601868E0,6.5762024E0,0E0,0E0,0E0,0E0,0E0,0E0,0E0,0E0],"parents":[2147483647,0,0,1,1,2,2,3,3,4,4,5,5,6,6],"right_children":[2,4,6,8,10,12,14,-1,-1,-1,-1,-1,-1,-1,-1],"split_conditions":[5E-1,5E-1,1.9881579E0,5E-1,1.03975E2,1.6907728E0,5E-1,1.4347317E-2,-1.706654E-2,-2.3387473E-2,8.4738415E-3,-2.7306264E-2,-4.649382E-2,-7.4177533E-3,-2.8135343E-2],"split_indices":[2,8,14,20,12,14,5,0,0,0,0,0,0,0,0],"split_type":[0,0,0,0,0,0,0,0,0,0,0,0,0,0,0],"sum_hessian":[1.2616289E3,1.0207706E3,2.4085825E2,8.2693195E2,1.9383867E2,1.1669714E2,1.2416111E2,7.0146246E2,1.2546953E2,1.3882855E2,5.5010117E1,1.0090044E2,1.5796704E1,9.737066E1,2.6790457E1],"tree_param":{"num_deleted":"0","num_feature":"26","num_nodes":"15","size_leaf_vector":"0"}},{"base_weights":[6.385976E-3,1.368314E-1,-4.865024E-1,2.9234228E-1,-5.72804E-1,-7.0684665E-1,-5.086718E-2,4.7434178E-1,-2.0670953E-1,-7.617388E-1,1.23040736E-1,-3.821901E-1,-9.1039777E-1,1.6471562E-1,-5.53806E-1],"categories":[],"categories_nodes":[],"categories_segments":[],"categories_sizes":[],"default_left":[1,1,1,1,1,1,1,0,0,0,0,0,0,0,0],"id":55,"left_children":[1,3,5,7,9,11,13,-1,-1,-1,-1,-1,-1,-1,-1],"loss_changes":[8.03439E1,1.09206665E2,2.5066315E1,7.377013E1,2.3487904E1,1.112368E1,9.732266E0,0E0,0E0,0E0,0E0,0E0,0E0,0E0,0E0],"parents":[2147483647,0,0,1,1,2,2,3,3,4,4,5,5,6,6],"right_children":[2,4,6,8,10,12,14,-1,-1,-1,-1,-1,-1,-1,-1],"split_conditions":[5E-1,5E-1,9.7825E1,5E-1,9.6125E0,2.25E1,5E-1,1.7699294E-2,-7.7130306E-3,-2.8423045E-2,4.591065E-3,-1.4260803E-2,-3.3970013E-2,6.1460957E-3,-2.0664372E-2],"split_indices":[8,20,12,6,14,3,22,0,0,0,0,0,0,0,0],"split_type":[0,0,0,0,0,0,0,0,0,0,0,0,0,0,0],"sum_hessian":[1.2475776E3,9.870675E2,2.6051007E2,8.1012354E2,1.7694402E2,1.72591E2,8.791906E1,5.936679E2,2.164556E2,1.3908511E2,3.7858902E1,6.7618935E1,1.0497207E2,6.2010845E1,2.5908216E1],"tree_param":{"num_deleted":"0","num_feature":"26","num_nodes":"15","size_leaf_vector":"0"}},{"base_weights":[-1.6162846E-2,1.1754905E-1,-5.851352E-1,2.0970269E-1,-5.283783E-1,-7.3137295E-1,-1.12627685E-1,3.2507467E-1,-3.9684233E-1,-1.0071107E0,-3.4504345E-1,-1.0385468E0,-5.4688793E-1,1.6256593E-1,-4.1458023E-1],"categories":[],"categories_nodes":[],"categories_segments":[],"categories_sizes":[],"default_left":[1,1,1,1,1,1,1,0,0,0,0,0,0,0,0],"id":56,"left_children":[1,3,5,7,9,11,13,-1,-1,-1,-1,-1,-1,-1,-1],"loss_changes":[9.371049E1,5.9485023E1,1.611319E1,6.126554E1,1.0608143E1,9.564819E0,4.7687407E0,0E0,0E0,0E0,0E0,0E0,0E0,0E0,0E0],"parents":[2147483647,0,0,1,1,2,2,3,3,4,4,5,5,6,6],"right_children":[2,4,6,8,10,12,14,-1,-1,-1,-1,-1,-1,-1,-1],"split_conditions":[5E-1,5E-1,5.096389E0,5E-1,5.335E1,5.1574997E1,5E-1,1.2129634E-2,-1.4807527E-2,-3.7578702E-2,-1.28747355E-2,-3.8751688E-2,-2.0406235E-2,6.0658837E-3,-1.5469388E-2],"split_indices":[2,23,14,5,12,12,16,0,0,0,0,0,0,0,0],"split_type":[0,0,0,0,0,0,0,0,0,0,0,0,0,0,0],"sum_hessian":[1.2298585E3,9.964744E2,2.3338402E2,8.726499E2,1.2382452E2,1.7780637E2,5.557766E1,7.335787E2,1.3907123E2,3.3044334E1,9.078018E1,6.4981125E1,1.1282523E2,2.9318747E1,2.6258911E1],"tree_param":{"num_deleted":"0","num_feature":"26","num_nodes":"15","size_leaf_vector":"0"}},{"base_weights":[2.7416842E-3,1.0792136E-1,-6.4483416E-1,2.4546243E-1,-4.161871E-1,-7.086632E-1,1.919724E-1,4.3500653E-1,-2.2914785E-1,-8.2087183E-1,1.6042474E-1,-6.377851E-1,-1.4800868E0],"categories":[],"categories_nodes":[],"categories_segments":[],"categories_sizes":[],"default_left":[1,1,1,1,1,1,0,0,0,0,0,0,0],"id":57,"left_children":[1,3,5,7,9,11,-1,-1,-1,-1,-1,-1,-1],"loss_changes":[8.446273E1,7.7001724E1,9.390816E0,7.6173294E1,5.1964054E1,7.870125E0,0E0,0E0,0E0,0E0,0E0,0E0,0E0],"parents":[2147483647,0,0,1,1,2,2,3,3,4,4,5,5],"right_children":[2,4,6,8,10,12,-1,-1,-1,-1,-1,-1,-1],"split_conditions":[5E-1,5E-1,1.1122223E1,5E-1,7.5775642E0,6.0299997E0,7.1631386E-3,1.6231563E-2,-8.55028E-3,-3.0629499E-2,5.985989E-3,-2.3797914E-2,-5.5227034E-2],"split_indices":[23,25,14,6,14,14,0,0,0,0,0,0,0],"split_type":[0,0,0,0,0,0,0,0,0,0,0,0,0],"sum_hessian":[1.2380382E3,1.0657687E3,1.722695E2,8.446421E2,2.2112662E2,1.6020284E2,1.2066653E1,6.0364795E2,2.4099416E2,1.2968553E2,9.144109E1,1.4839511E2,1.1807729E1],"tree_param":{"num_deleted":"0","num_feature":"26","num_nodes":"13","size_leaf_vector":"0"}},{"base_weights":[1.1642836E-2,9.480941E-2,-8.117471E-1,3.136136E-1,-1.9748642E-1,-8.9697534E-1,-3.804717E-1,4.3891856E-1,-4.9111858E-1,-1.0148536E-1,-8.232548E-1,-7.958213E-1,-1.1626952E0,1.033544E-1,-1.0583405E0],"categories":[],"categories_nodes":[],"categories_segments":[],"categories_sizes":[],"default_left":[1,1,1,1,1,1,1,0,0,0,0,0,0,0,0],"id":58,"left_children":[1,3,5,7,9,11,13,-1,-1,-1,-1,-1,-1,-1,-1],"loss_changes":[8.5675705E1,7.273012E1,3.8776398E0,6.577885E1,2.9175016E1,1.6309357E0,6.8906097E0,0E0,0E0,0E0,0E0,0E0,0E0,0E0,0E0],"parents":[2147483647,0,0,1,1,2,2,3,3,4,4,5,5,6,6],"right_children":[2,4,6,8,10,12,14,-1,-1,-1,-1,-1,-1,-1,-1],"split_conditions":[5E-1,5E-1,1.0589168E2,5E-1,5E-1,1.4651216E0,7.15E1,1.6377533E-2,-1.8325292E-2,-3.7867613E-3,-3.0718416E-2,-2.9694779E-2,-4.3384083E-2,3.8565015E-3,-3.949026E-2],"split_indices":[22,16,12,21,23,14,3,0,0,0,0,0,0,0,0],"split_type":[0,0,0,0,0,0,0,0,0,0,0,0,0,0,0],"sum_hessian":[1.2490087E3,1.1352296E3,1.13779106E2,6.4919104E2,4.860385E2,9.410279E1,1.9676321E1,5.621181E2,8.707293E1,4.2239914E2,6.3639378E1,7.105037E1,2.305242E1,1.1976018E1,7.700303E0],"tree_param":{"num_deleted":"0","num_feature":"26","num_nodes":"15","size_leaf_vector":"0"}},{"base_weights":[-5.9460854E-4,1.1729467E-1,-4.6216756E-1,2.584547E-1,-5.39795E-1,-6.3070446E-1,1.0666227E-2,3.901612E-1,-3.6361605E-1,-7.6195693E-1,2.197856E-1,-3.8940105E-1,-9.133142E-1,2.7054828E-1,-9.7321403E-1],"categories":[],"categories_nodes":[],"categories_segments":[],"categories_sizes":[],"default_left":[1,1,1,1,1,1,1,0,0,0,0,0,0,0,0],"id":59,"left_children":[1,3,5,7,9,11,13,-1,-1,-1,-1,-1,-1,-1,-1],"loss_changes":[6.64753E1,9.04003E1,1.9812782E1,6.582623E1,2.9260937E1,1.2140717E1,1.7214066E1,0E0,0E0,0E0,0E0,0E0,0E0,0E0,0E0],"parents":[2147483647,0,0,1,1,2,2,3,3,4,4,5,5,6,6],"right_children":[2,4,6,8,10,12,14,-1,-1,-1,-1,-1,-1,-1,-1],"split_conditions":[5E-1,5E-1,1.03975E2,5E-1,9.658806E0,5E-1,5E-1,1.45582305E-2,-1.3567742E-2,-2.8431185E-2,8.200943E-3,-1.4529868E-2,-3.4078836E-2,1.009507E-2,-3.63139E-2],"split_indices":[8,20,12,5,14,7,2,0,0,0,0,0,0,0,0],"split_type":[0,0,0,0,0,0,0,0,0,0,0,0,0,0,0],"sum_hessian":[1.2196506E3,9.721117E2,2.4753891E2,8.007058E2,1.7140588E2,1.8224545E2,6.529346E1,6.6110724E2,1.3959859E2,1.3261543E2,3.8790455E1,9.95897E1,8.265576E1,5.2224026E1,1.3069431E1],"tree_param":{"num_deleted":"0","num_feature":"26","num_nodes":"15","size_leaf_vector":"0"}},{"base_weights":[-2.3646407E-2,9.6129164E-2,-5.065424E-1,-4.439624E-1,2.2813687E-1,-1.1178429E0,-4.5174196E-1,-6.9226384E-1,-6.374979E-2,4.1546205E-1,-2.3420106E-1,-1.3047949E0,-7.898227E-1,7.1829075E-1,-5.2424395E-1],"categories":[],"categories_nodes":[],"categories_segments":[],"categories_sizes":[],"default_left":[1,1,1,1,1,1,1,0,0,0,0,0,0,0,0],"id":60,"left_children":[1,3,5,7,9,11,13,-1,-1,-1,-1,-1,-1,-1,-1],"loss_changes":[7.0959785E1,7.01989E1,7.6627846E0,1.8218822E1,6.8581314E1,1.5795135E-1,1.9500252E1,0E0,0E0,0E0,0E0,0E0,0E0,0E0,0E0],"parents":[2147483647,0,0,1,1,2,2,3,3,4,4,5,5,6,6],"right_children":[2,4,6,8,10,12,14,-1,-1,-1,-1,-1,-1,-1,-1],"split_conditions":[5E-1,2.6459026E1,1.0214336E0,4.0600004E0,5E-1,5E-1,1.1449822E0,-2.5830701E-2,-2.3787199E-3,1.5502292E-2,-8.738832E-3,-4.8686303E-2,-2.947095E-2,2.6801853E-2,-1.9561311E-2],"split_indices":[5,12,14,14,6,22,14,0,0,0,0,0,0,0,0],"split_type":[0,0,0,0,0,0,0,0,0,0,0,0,0,0,0],"sum_hessian":[1.2250051E3,9.821881E2,2.4281703E2,1.9244843E2,7.897397E2,1.8380762E1,2.2443626E2,1.1592305E2,7.652537E1,5.620967E2,2.2764299E2,9.811181E0,8.569581E0,1.257614E1,2.1186012E2],"tree_param":{"num_deleted":"0","num_feature":"26","num_nodes":"15","size_leaf_vector":"0"}},{"base_weights":[-1.2115337E-2,6.160073E-2,-7.5707006E-1,1.4158444E-1,-5.188031E-1,-8.484508E-1,-3.702319E-1,2.6349497E-1,-3.4601682E-1,-6.207415E-1,2.3743807E-1,-8.941874E-1,-4.1776717E-1,1.0355466E-1,-1.0581765E0],"categories":[],"categories_nodes":[],"categories_segments":[],"categories_sizes":[],"default_left":[1,1,1,1,1,1,1,0,0,0,0,0,0,0,0],"id":61,"left_children":[1,3,5,7,9,11,13,-1,-1,-1,-1,-1,-1,-1,-1],"loss_changes":[6.695998E1,5.158863E1,3.5669785E0,5.811286E1,1.0524967E1,1.360611E0,7.5259542E0,0E0,0E0,0E0,0E0,0E0,0E0,0E0,0E0],"parents":[2147483647,0,0,1,1,2,2,3,3,4,4,5,5,6,6],"right_children":[2,4,6,8,10,12,14,-1,-1,-1,-1,-1,-1,-1,-1],"split_conditions":[5E-1,5E-1,1.0589168E2,5E-1,6.35E1,5E-1,7.15E1,9.831887E-3,-1.2911056E-2,-2.316196E-2,8.859616E-3,-3.336515E-2,-1.5588303E-2,3.8639738E-3,-3.948414E-2],"split_indices":[22,23,12,25,3,24,3,0,0,0,0,0,0,0,0],"split_type":[0,0,0,0,0,0,0,0,0,0,0,0,0,0,0],"sum_hessian":[1.2174863E3,1.1086941E3,1.0879214E2,9.7507764E2,1.3361647E2,8.703825E1,2.175388E1,7.8041675E2,1.9466089E2,1.1790281E2,1.5713661E1,7.7709656E1,9.328602E0,1.3385072E1,8.368809E0],"tree_param":{"num_deleted":"0","num_feature":"26","num_nodes":"15","size_leaf_vector":"0"}},{"base_weights":[-5.141484E-3,1.4430472E-1,-3.8333562E-1,2.9463717E-1,-4.9191856E-1,-2.882816E-1,-8.849399E-1,4.184166E-1,-2.855467E-1,-6.5246433E-1,1.4997263E-1,-5.5164605E-1,-1.5974686E-1],"categories":[],"categories_nodes":[],"categories_segments":[],"categories_sizes":[],"default_left":[1,1,1,1,1,1,0,0,0,0,0,0,0],"id":62,"left_children":[1,3,5,7,9,11,-1,-1,-1,-1,-1,-1,-1],"loss_changes":[6.902489E1,8.387039E1,1.6237144E1,5.101421E1,1.7378101E1,9.805853E0,0E0,0E0,0E0,0E0,0E0,0E0,0E0],"parents":[2147483647,0,0,1,1,2,2,3,3,4,4,5,5],"right_children":[2,4,6,8,10,12,-1,-1,-1,-1,-1,-1,-1],"split_conditions":[5E-1,5E-1,5E-1,5E-1,9.783646E0,5E-1,-3.3020094E-2,1.5612535E-2,-1.0654711E-2,-2.4345648E-2,5.5959853E-3,-2.0583777E-2,-5.9606945E-3],"split_indices":[6,20,22,5,14,19,0,0,0,0,0,0,0],"split_type":[0,0,0,0,0,0,0,0,0,0,0,0,0],"sum_hessian":[1.2192753E3,8.7437714E2,3.4489816E2,7.076939E2,1.6668327E2,2.9127606E2,5.36221E1,5.834883E2,1.24205574E2,1.3332132E2,3.3361954E1,9.44528E1,1.9682326E2],"tree_param":{"num_deleted":"0","num_feature":"26","num_nodes":"13","size_leaf_vector":"0"}},{"base_weights":[1.1167186E-2,1.2259297E-1,-4.6919286E-1,2.5949043E-1,-2.5137833E-1,-7.537493E-1,-3.2273555E-1,3.4410983E-1,-5.3012604E-1,-4.772705E-1,1.2323738E-1,-9.2131275E-1,-4.7164026E-1,-6.6501275E-2,-7.103898E-1],"categories":[],"categories_nodes":[],"categories_segments":[],"categories_sizes":[],"default_left":[1,1,1,1,1,1,1,0,0,0,0,0,0,0,0],"id":63,"left_children":[1,3,5,7,9,11,13,-1,-1,-1,-1,-1,-1,-1,-1],"loss_changes":[6.455245E1,5.0179443E1,9.220642E0,4.8094017E1,2.2299114E1,3.1776695E0,1.5018345E1,0E0,0E0,0E0,0E0,0E0,0E0,0E0,0E0],"parents":[2147483647,0,0,1,1,2,2,3,3,4,4,5,5,6,6],"right_children":[2,4,6,8,10,12,14,-1,-1,-1,-1,-1,-1,-1,-1],"split_conditions":[5E-1,5E-1,5.0574997E1,5E-1,9.7975E1,5E-1,5E-1,1.2839899E-2,-1.9780792E-2,-1.7808573E-2,4.5984024E-3,-3.4377288E-2,-1.759849E-2,-2.481387E-3,-2.650704E-2],"split_indices":[2,6,12,23,12,15,8,0,0,0,0,0,0,0,0],"split_type":[0,0,0,0,0,0,0,0,0,0,0,0,0,0,0],"sum_hessian":[1.2039612E3,9.7787506E2,2.2608609E2,7.1605804E2,2.61817E2,7.541445E1,1.5067163E2,6.472586E2,6.879941E1,1.6315872E2,9.865827E1,4.589095E1,2.9523504E1,9.141746E1,5.9254173E1],"tree_param":{"num_deleted":"0","num_feature":"26","num_nodes":"15","size_leaf_vector":"0"}},{"base_weights":[-4.5956285E-3,1.0827266E-1,-5.00937E-1,1.8820457E-1,-4.441577E-1,-8.3556724E-1,-3.5755792E-1,3.0947497E-1,-3.250752E-1,-5.2129656E-1,4.4469765E-1,-9.2813855E-1,-3.319668E-1,-1.2190298E-1,-7.652855E-1],"categories":[],"categories_nodes":[],"categories_segments":[],"categories_sizes":[],"default_left":[1,1,1,1,1,1,1,0,0,0,0,0,0,0,0],"id":64,"left_children":[1,3,5,7,9,11,13,-1,-1,-1,-1,-1,-1,-1,-1],"loss_changes":[6.6738976E1,4.294373E1,1.0290844E1,5.2925167E1,8.664522E0,2.7433395E0,1.4920496E1,0E0,0E0,0E0,0E0,0E0,0E0,0E0,0E0],"parents":[2147483647,0,0,1,1,2,2,3,3,4,4,5,5,6,6],"right_children":[2,4,6,8,10,12,14,-1,-1,-1,-1,-1,-1,-1,-1],"split_conditions":[5E-1,5E-1,4.5675003E1,5E-1,1.1122223E1,9.6125E0,5E-1,1.1547556E-2,-1.2129653E-2,-1.9451335E-2,1.6593171E-2,-3.4631982E-2,-1.2386802E-2,-4.5486116E-3,-2.8555386E-2],"split_indices":[2,23,12,25,14,14,5,0,0,0,0,0,0,0,0],"split_type":[0,0,0,0,0,0,0,0,0,0,0,0,0,0,0],"sum_hessian":[1.1893484E3,9.6963477E2,2.197136E2,8.4764685E2,1.2198789E2,6.445511E1,1.5525848E2,6.859722E2,1.6167462E2,1.1262712E2,9.360771E0,5.3734653E1,1.0720454E1,9.921438E1,5.604411E1],"tree_param":{"num_deleted":"0","num_feature":"26","num_nodes":"15","size_leaf_vector":"0"}},{"base_weights":[-1.083809E-2,6.03633E-2,-7.470091E-1,1.5197644E-1,-4.3172765E-1,-8.4126574E-1,-3.2538018E-1,2.345998E-1,-3.7681994E-1,-6.376267E-1,2.1723217E-1,-7.316886E-1,-1.1317263E0,3.020325E-1,-8.253409E-1],"categories":[],"categories_nodes":[],"categories_segments":[],"categories_sizes":[],"default_left":[1,1,1,1,1,1,1,0,0,0,0,0,0,0,0],"id":65,"left_children":[1,3,5,7,9,11,13,-1,-1,-1,-1,-1,-1,-1,-1],"loss_changes":[6.2599857E1,4.916434E1,3.9118767E0,4.023612E1,2.3013727E1,1.8915367E0,6.797015E0,0E0,0E0,0E0,0E0,0E0,0E0,0E0,0E0],"parents":[2147483647,0,0,1,1,2,2,3,3,4,4,5,5,6,6],"right_children":[2,4,6,8,10,12,14,-1,-1,-1,-1,-1,-1,-1,-1],"split_conditions":[5E-1,5E-1,1.05925E2,5E-1,1.03225E2,1.4651216E0,6.95E1,8.75371E-3,-1.4060424E-2,-2.3792004E-2,8.105665E-3,-2.7301772E-2,-4.2228527E-2,1.12698525E-2,-3.0796256E-2],"split_indices":[22,21,12,8,12,14,3,0,0,0,0,0,0,0,0],"split_type":[0,0,0,0,0,0,0,0,0,0,0,0,0,0,0],"sum_hessian":[1.1924197E3,1.0880984E3,1.043213E2,9.179026E2,1.701958E2,8.444748E1,1.9873817E1,7.9434424E2,1.2355835E2,1.2921616E2,4.0979652E1,6.3871006E1,2.0576475E1,8.989086E0,1.0884731E1],"tree_param":{"num_deleted":"0","num_feature":"26","num_nodes":"15","size_leaf_vector":"0"}},{"base_weights":[-5.2937674E-3,9.916237E-2,-4.6721283E-1,2.3388997E-1,-2.6454237E-1,-3.6987248E-1,-8.7947726E-1,4.4850898E-1,-7.78038E-2,-4.4754243E-1,6.749968E-2,-4.5572218E-1,4.2891096E-2,-1.0000095E0,-6.996339E-1],"categories":[],"categories_nodes":[],"categories_segments":[],"categories_sizes":[],"default_left":[1,1,1,1,1,1,1,0,0,0,0,0,0,0,0],"id":66,"left_children":[1,3,5,7,9,11,13,-1,-1,-1,-1,-1,-1,-1,-1],"loss_changes":[5.7701385E1,4.7855743E1,8.525475E0,4.7681225E1,1.607868E1,6.403288E0,1.9783401E-1,0E0,0E0,0E0,0E0,0E0,0E0,0E0,0E0],"parents":[2147483647,0,0,1,1,2,2,3,3,4,4,5,5,6,6],"right_children":[2,4,6,8,10,12,14,-1,-1,-1,-1,-1,-1,-1,-1],"split_conditions":[5E-1,5E-1,5E-1,5E-1,9.9125E1,9.6125E0,6.45E1,1.6735384E-2,-2.9031225E-3,-1.6699318E-2,2.518641E-3,-1.7004533E-2,1.6004116E-3,-3.7313733E-2,-2.6105702E-2],"split_indices":[2,6,22,16,12,14,3,0,0,0,0,0,0,0,0],"split_type":[0,0,0,0,0,0,0,0,0,0,0,0,0,0,0],"sum_hessian":[1.1939165E3,9.7436395E2,2.1955261E2,7.1125116E2,2.6311273E2,1.7915034E2,4.040227E1,4.209583E2,2.9029285E2,1.6940167E2,9.3711075E1,1.4821863E2,3.0931707E1,2.1459507E1,1.8942764E1],"tree_param":{"num_deleted":"0","num_feature":"26","num_nodes":"15","size_leaf_vector":"0"}},{"base_weights":[3.837131E-3,7.4253E-2,-7.5062203E-1,1.6200965E-2,7.37446E-1,-8.506625E-1,-4.1440132E-1,1.9044791E-1,-2.0760083E-1,7.960429E-1,1.705193E-1,-7.3065764E-1,-1.0651722E0,-1.4222269E-3,-9.1157573E-1],"categories":[],"categories_nodes":[],"categories_segments":[],"categories_sizes":[],"default_left":[1,1,1,1,1,1,1,0,0,0,0,0,0,0,0],"id":67,"left_children":[1,3,5,7,9,11,13,-1,-1,-1,-1,-1,-1,-1,-1],"loss_changes":[6.3127712E1,4.1828743E1,3.0593987E0,3.9049133E1,2.769394E0,1.2097054E0,5.1750584E0,0E0,0E0,0E0,0E0,0E0,0E0,0E0,0E0],"parents":[2147483647,0,0,1,1,2,2,3,3,4,4,5,5,6,6],"right_children":[2,4,6,8,10,12,14,-1,-1,-1,-1,-1,-1,-1,-1],"split_conditions":[5E-1,2.51125E1,1.03325E2,5E-1,5E-1,1.3225957E0,1.10025E2,7.1062543E-3,-7.7462876E-3,2.9703049E-2,6.362651E-3,-2.7263302E-2,-3.974517E-2,-5.3068085E-5,-3.4013968E-2],"split_indices":[22,14,12,16,1,14,12,0,0,0,0,0,0,0,0],"split_type":[0,0,0,0,0,0,0,0,0,0,0,0,0,0,0],"sum_hessian":[1.186217E3,1.0857795E3,1.0043739E2,9.993286E2,8.645096E1,7.622656E1,2.4210836E1,5.6195355E2,4.3737512E2,7.798625E1,8.464707E0,5.1706276E1,2.4520285E1,1.37730665E1,1.043777E1],"tree_param":{"num_deleted":"0","num_feature":"26","num_nodes":"15","size_leaf_vector":"0"}},{"base_weights":[-8.898431E-3,1.5907475E-1,-3.0694982E-1,3.8074604E-1,-1.5172975E-1,-4.308526E-1,4.3501105E-2,4.8968562E-1,-1.7105484E-1,-3.316074E-1,2.0855057E-1,-5.118562E-1,3.1318933E-2,-1.481306E-1,6.495759E-1],"categories":[],"categories_nodes":[],"categories_segments":[],"categories_sizes":[],"default_left":[1,1,1,1,1,1,1,0,0,0,0,0,0,0,0],"id":68,"left_children":[1,3,5,7,9,11,13,-1,-1,-1,-1,-1,-1,-1,-1],"loss_changes":[5.991285E1,5.2791412E1,1.8747887E1,2.6957214E1,2.0765415E1,1.194952E1,1.3286967E1,0E0,0E0,0E0,0E0,0E0,0E0,0E0,0E0],"parents":[2147483647,0,0,1,1,2,2,3,3,4,4,5,5,6,6],"right_children":[2,4,6,8,10,12,14,-1,-1,-1,-1,-1,-1,-1,-1],"split_conditions":[5E-1,5E-1,9.723251E1,5E-1,9.72504E0,7.823485E0,2.6013627E0,1.8271824E-2,-6.3826335E-3,-1.2373392E-2,7.781726E-3,-1.9099083E-2,1.1686151E-3,-5.5272523E-3,2.423787E-2],"split_indices":[1,16,12,25,14,14,14,0,0,0,0,0,0,0,0],"split_type":[0,0,0,0,0,0,0,0,0,0,0,0,0,0,0],"sum_hessian":[1.1947346E3,7.6440454E2,4.303301E2,4.4604926E2,3.1835526E2,3.1775696E2,1.12573166E2,3.726009E2,7.3448364E1,2.1239307E2,1.059622E2,2.7027844E2,4.7478508E1,8.610398E1,2.6469189E1],"tree_param":{"num_deleted":"0","num_feature":"26","num_nodes":"15","size_leaf_vector":"0"}},{"base_weights":[2.703974E-3,1.1443237E-1,-4.2535865E-1,2.290743E-1,-4.5089036E-1,-6.060157E-1,4.7881756E-2,3.46961E-1,-3.3057243E-1,-6.7640775E-1,2.4863014E-1,-2.7396235E-1,-8.213454E-1,2.566273E-1,-7.911532E-1],"categories":[],"categories_nodes":[],"categories_segments":[],"categories_sizes":[],"default_left":[1,1,1,1,1,1,1,0,0,0,0,0,0,0,0],"id":69,"left_children":[1,3,5,7,9,11,13,-1,-1,-1,-1,-1,-1,-1,-1],"loss_changes":[5.6537918E1,6.0858246E1,2.0948261E1,5.1578278E1,2.5154598E1,1.2441948E1,1.2205352E1,0E0,0E0,0E0,0E0,0E0,0E0,0E0,0E0],"parents":[2147483647,0,0,1,1,2,2,3,3,4,4,5,5,6,6],"right_children":[2,4,6,8,10,12,14,-1,-1,-1,-1,-1,-1,-1,-1],"split_conditions":[5E-1,5E-1,1.0400921E2,5E-1,9.7125E0,2.25E1,5E-1,1.2946286E-2,-1.2334773E-2,-2.5239056E-2,9.27723E-3,-1.022246E-2,-3.064717E-2,9.575631E-3,-2.9520595E-2],"split_indices":[8,20,12,5,14,3,2,0,0,0,0,0,0,0,0],"split_type":[0,0,0,0,0,0,0,0,0,0,0,0,0,0,0],"sum_hessian":[1.1801224E3,9.3643634E2,2.4368608E2,7.7904785E2,1.573885E2,1.761581E2,6.752799E1,6.4381213E2,1.3523567E2,1.19043335E2,3.834516E1,7.0191E1,1.05967094E2,5.4630478E1,1.289751E1],"tree_param":{"num_deleted":"0","num_feature":"26","num_nodes":"15","size_leaf_vector":"0"}},{"base_weights":[-7.1073724E-3,9.760815E-2,-4.291595E-1,1.7854993E-1,-5.068874E-1,-1.1441373E0,-3.6850706E-1,-1.204E-2,4.0658346E-1,-1.0050193E0,-2.5965127E-1,8.049216E-1,-4.4119298E-1],"categories":[],"categories_nodes":[],"categories_segments":[],"categories_sizes":[],"default_left":[1,1,1,1,1,0,1,0,0,0,0,0,0],"id":70,"left_children":[1,3,5,7,9,-1,11,-1,-1,-1,-1,-1,-1],"loss_changes":[5.2337753E1,4.651809E1,9.786949E0,3.6406277E1,1.35708885E1,0E0,1.898935E1,0E0,0E0,0E0,0E0,0E0,0E0],"parents":[2147483647,0,0,1,1,2,2,3,3,4,4,6,6],"right_children":[2,4,6,8,10,-1,12,-1,-1,-1,-1,-1,-1],"split_conditions":[5E-1,5E-1,1.0277572E0,7.896517E1,5.165E1,-4.2691622E-2,1.1449822E0,-4.4925307E-4,1.5171002E-2,-3.7500665E-2,-9.688466E-3,3.0034343E-2,-1.6462399E-2],"split_indices":[5,23,14,12,12,0,14,0,0,0,0,0,0],"split_type":[0,0,0,0,0,0,0,0,0,0,0,0,0],"sum_hessian":[1.1822872E3,9.478777E2,2.3440959E2,8.3656635E2,1.1131138E2,1.6933357E1,2.1747623E2,4.5621228E2,3.8035403E2,3.5904957E1,7.540642E1,1.2097785E1,2.0537845E2],"tree_param":{"num_deleted":"0","num_feature":"26","num_nodes":"13","size_leaf_vector":"0"}},{"base_weights":[3.1933606E-2,-2.076417E-1,2.3055117E-1,-6.780928E-1,-1.0844748E-1,3.3878407E-1,-2.8463405E-1,-4.7402745E-1,-1.0365674E0,3.7387988E-1,-2.4043477E-1,4.341281E-1,-1.8907528E-1,-7.859518E-1,-1.3392147E-1],"categories":[],"categories_nodes":[],"categories_segments":[],"categories_sizes":[],"default_left":[1,1,1,1,1,1,1,0,0,0,0,0,0,0,0],"id":71,"left_children":[1,3,5,7,9,11,13,-1,-1,-1,-1,-1,-1,-1,-1],"loss_changes":[5.5138954E1,2.4440228E1,3.541849E1,6.186138E0,2.7783728E1,2.645132E1,8.245128E0,0E0,0E0,0E0,0E0,0E0,0E0,0E0,0E0],"parents":[2147483647,0,0,1,1,2,2,3,3,4,4,5,5,6,6],"right_children":[2,4,6,8,10,12,14,-1,-1,-1,-1,-1,-1,-1,-1],"split_conditions":[5E-1,1.0157317E0,5E-1,7.839916E-1,5E-1,5E-1,1.6079924E0,-1.7687565E-2,-3.867783E-2,1.395072E-2,-8.971433E-3,1.6198786E-2,-7.0550367E-3,-2.9326515E-2,-4.9970625E-3],"split_indices":[19,14,5,14,4,8,14,0,0,0,0,0,0,0,0],"split_type":[0,0,0,0,0,0,0,0,0,0,0,0,0,0,0],"sum_hessian":[1.1567681E3,5.2430206E2,6.32466E2,9.028222E1,4.3401987E2,5.2294525E2,1.0952077E2,5.9011616E1,3.1270607E1,9.285667E1,3.411632E2,4.4309015E2,7.98551E1,2.4340765E1,8.518001E1],"tree_param":{"num_deleted":"0","num_feature":"26","num_nodes":"15","size_leaf_vector":"0"}},{"base_weights":[-2.0047246E-2,-1.5338512E-1,3.1527424E-1,-5.4106086E-2,-7.6168007E-1,2.0186454E-1,7.559572E-1,6.1496302E-2,-5.358909E-1,-8.4712124E-1,-3.2991308E-1,1.0713573E-1,7.1861297E-1,5.7119703E-1,9.332807E-1],"categories":[],"categories_nodes":[],"categories_segments":[],"categories_sizes":[],"default_left":[1,1,1,1,1,1,1,0,0,0,0,0,0,0,0],"id":72,"left_children":[1,3,5,7,9,11,13,-1,-1,-1,-1,-1,-1,-1,-1],"loss_changes":[5.2439987E1,5.0631145E1,1.6525467E1,4.026844E1,4.0608215E0,1.2981748E1,1.6927261E0,0E0,0E0,0E0,0E0,0E0,0E0,0E0,0E0],"parents":[2147483647,0,0,1,1,2,2,3,3,4,4,5,5,6,6],"right_children":[2,4,6,8,10,12,14,-1,-1,-1,-1,-1,-1,-1,-1],"split_conditions":[7.6879807E0,5E-1,2.8035236E1,5E-1,5E-1,8.935861E1,7.558941E1,2.2946347E-3,-1.9995898E-2,-3.1608954E-2,-1.2310171E-2,3.9975955E-3,2.6813876E-2,2.131329E-2,3.4823854E-2],"split_indices":[14,25,14,23,10,12,12,0,0,0,0,0,0,0,0],"split_type":[0,0,0,0,0,0,0,0,0,0,0,0,0,0,0],"sum_hessian":[1.1707825E3,8.380723E2,3.3271008E2,7.214194E2,1.1665297E2,2.6577182E2,6.693827E1,5.825186E2,1.3890073E2,9.657919E1,2.0073782E1,2.2561928E2,4.0152542E1,3.4849E1,3.208927E1],"tree_param":{"num_deleted":"0","num_feature":"26","num_nodes":"15","size_leaf_vector":"0"}},{"base_weights":[-3.047457E-4,1.0774295E-1,-4.0979752E-1,2.1708587E-1,-4.2657366E-1,-5.7155055E-1,2.7273806E-2,3.7532446E-1,-1.909923E-1,-6.066288E-1,1.19480245E-1,-2.7675623E-1,-7.579089E-1,2.4177952E-1,-8.329449E-1],"categories":[],"categories_nodes":[],"categories_segments":[],"categories_sizes":[],"default_left":[1,1,1,1,1,1,1,0,0,0,0,0,0,0,0],"id":73,"left_children":[1,3,5,7,9,11,13,-1,-1,-1,-1,-1,-1,-1,-1],"loss_changes":[5.161033E1,5.4014748E1,1.7232311E1,4.958837E1,1.5520985E1,9.557617E0,1.2515488E1,0E0,0E0,0E0,0E0,0E0,0E0,0E0,0E0],"parents":[2147483647,0,0,1,1,2,2,3,3,4,4,5,5,6,6],"right_children":[2,4,6,8,10,12,14,-1,-1,-1,-1,-1,-1,-1,-1],"split_conditions":[5E-1,5E-1,1.03975E2,5E-1,9.658806E0,2.25E1,5E-1,1.4004623E-2,-7.1265674E-3,-2.2635367E-2,4.4582114E-3,-1.0326709E-2,-2.8280139E-2,9.02161E-3,-3.1079987E-2],"split_indices":[8,20,12,6,14,3,2,0,0,0,0,0,0,0,0],"split_type":[0,0,0,0,0,0,0,0,0,0,0,0,0,0,0],"sum_hessian":[1.1644756E3,9.219493E2,2.4252625E2,7.658242E2,1.5612506E2,1.7679106E2,6.573518E1,5.5189764E2,2.1392656E2,1.17326904E2,3.8798153E1,6.94366E1,1.0735446E2,5.3190453E1,1.2544736E1],"tree_param":{"num_deleted":"0","num_feature":"26","num_nodes":"15","size_leaf_vector":"0"}},{"base_weights":[9.978556E-4,1.01457566E-1,-3.9142537E-1,2.1436183E-1,-4.4527796E-1,-5.588536E-1,5.1074132E-2,3.2516417E-1,-3.118819E-1,-6.09186E-1,3.77585E-2,-4.1308835E-1,-9.067883E-1,2.2331336E-1,-7.160536E-1],"categories":[],"categories_nodes":[],"categories_segments":[],"categories_sizes":[],"default_left":[1,1,1,1,1,1,1,0,0,0,0,0,0,0,0],"id":74,"left_children":[1,3,5,7,9,11,13,-1,-1,-1,-1,-1,-1,-1,-1],"loss_changes":[4.6073746E1,5.753377E1,1.7676628E1,4.511051E1,1.2658224E1,8.394463E0,8.920818E0,0E0,0E0,0E0,0E0,0E0,0E0,0E0,0E0],"parents":[2147483647,0,0,1,1,2,2,3,3,4,4,5,5,6,6],"right_children":[2,4,6,8,10,12,14,-1,-1,-1,-1,-1,-1,-1,-1],"split_conditions":[5E-1,5E-1,1.03975E2,5E-1,9.631184E0,4.75E1,5E-1,1.21329725E-2,-1.1637366E-2,-2.2730786E-2,1.4088971E-3,-1.5413721E-2,-3.3835333E-2,8.332576E-3,-2.6718376E-2],"split_indices":[8,20,12,5,14,3,2,0,0,0,0,0,0,0,0],"split_type":[0,0,0,0,0,0,0,0,0,0,0,0,0,0,0],"sum_hessian":[1.166703E3,9.294952E2,2.3720781E2,7.709062E2,1.5858896E2,1.719023E2,6.530551E1,6.37137E2,1.3376918E2,1.1821431E2,4.0374645E1,1.2268948E2,4.9212814E1,5.391022E1,1.13952875E1],"tree_param":{"num_deleted":"0","num_feature":"26","num_nodes":"15","size_leaf_vector":"0"}},{"base_weights":[-2.2860232E-3,1.4856856E-1,-2.7541912E-1,3.2985994E-1,-1.01972476E-1,-4.071812E-1,1.1544491E-1,4.7267863E-1,-1.6821319E-1,-2.7822477E-1,2.4655859E-1,-3.2393318E-1,-7.128952E-1,4.3808952E-1,-2.721105E-1],"categories":[],"categories_nodes":[],"categories_segments":[],"categories_sizes":[],"default_left":[1,1,1,1,1,1,1,0,0,0,0,0,0,0,0],"id":75,"left_children":[1,3,5,7,9,11,13,-1,-1,-1,-1,-1,-1,-1,-1],"loss_changes":[4.75098E1,3.3772713E1,2.117551E1,3.0752563E1,1.9271988E1,7.583351E0,1.3149953E1,0E0,0E0,0E0,0E0,0E0,0E0,0E0,0E0],"parents":[2147483647,0,0,1,1,2,2,3,3,4,4,5,5,6,6],"right_children":[2,4,6,8,10,12,14,-1,-1,-1,-1,-1,-1,-1,-1],"split_conditions":[5E-1,5E-1,9.836524E1,5E-1,9.72504E0,5E-1,5E-1,1.7637236E-2,-6.276602E-3,-1.0381505E-2,9.199933E-3,-1.2087041E-2,-2.6600527E-2,1.6346598E-2,-1.0153361E-2],"split_indices":[1,16,12,6,14,8,8,0,0,0,0,0,0,0,0],"split_type":[0,0,0,0,0,0,0,0,0,0,0,0,0,0,0],"sum_hessian":[1.1510629E3,7.4180914E2,4.0925375E2,4.302E2,3.116091E2,3.0604333E2,1.03210396E2,3.3437228E2,9.582774E1,2.0708691E2,1.045222E2,2.4216087E2,6.388248E1,5.6250652E1,4.6959743E1],"tree_param":{"num_deleted":"0","num_feature":"26","num_nodes":"15","size_leaf_vector":"0"}},{"base_weights":[-8.535855E-3,6.6149056E-2,-4.8559555E-1,1.6431399E-1,-3.7191322E-1,-5.4407704E-1,2.080309E-1,2.821244E-1,-2.85858E-1,-1.0129281E0,-2.3520993E-1,-1.1338892E0,-4.417691E-1],"categories":[],"categories_nodes":[],"categories_segments":[],"categories_sizes":[],"default_left":[1,1,1,1,1,1,0,0,0,0,0,0,0],"id":76,"left_children":[1,3,5,7,9,11,-1,-1,-1,-1,-1,-1,-1],"loss_changes":[4.071165E1,4.2550858E1,6.387207E0,4.2927025E1,1.5639231E1,8.123138E0,0E0,0E0,0E0,0E0,0E0,0E0,0E0],"parents":[2147483647,0,0,1,1,2,2,3,3,4,4,5,5],"right_children":[2,4,6,8,10,12,-1,-1,-1,-1,-1,-1,-1],"split_conditions":[5E-1,5E-1,1.1122223E1,5E-1,1.4863651E0,1.35E1,7.762335E-3,1.0527014E-2,-1.0666328E-2,-3.7795767E-2,-8.776477E-3,-4.2309232E-2,-1.6483895E-2],"split_indices":[23,8,14,25,14,3,0,0,0,0,0,0,0],"split_type":[0,0,0,0,0,0,0,0,0,0,0,0,0],"sum_hessian":[1.140748E3,9.870796E2,1.5366847E2,8.0688947E2,1.8019014E2,1.4191855E2,1.1749926E1,6.39821E2,1.6706844E2,3.0546227E1,1.496439E2,1.9487684E1,1.2243087E2],"tree_param":{"num_deleted":"0","num_feature":"26","num_nodes":"13","size_leaf_vector":"0"}},{"base_weights":[-2.8235146E-3,1.0451697E-1,-4.8835102E-1,1.9011272E-1,-2.922676E-1,-7.48446E-1,-3.327857E-1,2.819052E-1,-3.2022178E-1,-4.6885458E-1,3.0713324E-2,-8.652284E-1,-3.982337E-1,-2.1791251E-1,-8.560906E-1],"categories":[],"categories_nodes":[],"categories_segments":[],"categories_sizes":[],"default_left":[1,1,1,1,1,1,1,0,0,0,0,0,0,0,0],"id":77,"left_children":[1,3,5,7,9,11,13,-1,-1,-1,-1,-1,-1,-1,-1],"loss_changes":[5.991821E1,3.2033787E1,8.173206E0,3.639925E1,9.565839E0,2.808857E0,7.7515097E0,0E0,0E0,0E0,0E0,0E0,0E0,0E0,0E0],"parents":[2147483647,0,0,1,1,2,2,3,3,4,4,5,5,6,6],"right_children":[2,4,6,8,10,12,14,-1,-1,-1,-1,-1,-1,-1,-1],"split_conditions":[5E-1,5E-1,5.4925E1,5E-1,9.3775E1,6.076449E0,4.5E0,1.0518835E-2,-1.1948556E-2,-1.7494546E-2,1.1460178E-3,-3.228459E-2,-1.4859444E-2,-8.131051E-3,-3.194363E-2],"split_indices":[2,5,12,20,12,14,13,0,0,0,0,0,0,0,0],"split_type":[0,0,0,0,0,0,0,0,0,0,0,0,0,0,0],"sum_hessian":[1.1477125E3,9.405585E2,2.0715405E2,7.7408997E2,1.6646855E2,7.610327E1,1.3105078E2,6.564616E2,1.1762835E2,1.07333336E2,5.9135204E1,5.5969124E1,2.0134148E1,1.0862286E2,2.2427916E1],"tree_param":{"num_deleted":"0","num_feature":"26","num_nodes":"15","size_leaf_vector":"0"}},{"base_weights":[-2.4413145E-3,-1.2704253E-1,3.148306E-1,-2.3665981E-1,2.1932344E-1,1.3353078E-1,6.466235E-1,-1.0798984E-1,-6.353041E-1,5.696866E-1,-3.2761145E-2,3.1206599E-3,6.0034907E-1,7.3307323E-1,-2.5876138E-1],"categories":[],"categories_nodes":[],"categories_segments":[],"categories_sizes":[],"default_left":[1,1,1,1,1,1,1,0,0,0,0,0,0,0,0],"id":78,"left_children":[1,3,5,7,9,11,13,-1,-1,-1,-1,-1,-1,-1,-1],"loss_changes":[4.546215E1,3.1401855E1,1.9420551E1,3.2127594E1,1.7595943E1,1.2840824E1,9.137871E0,0E0,0E0,0E0,0E0,0E0,0E0,0E0,0E0],"parents":[2147483647,0,0,1,1,2,2,3,3,4,4,5,5,6,6],"right_children":[2,4,6,8,10,12,14,-1,-1,-1,-1,-1,-1,-1,-1],"split_conditions":[7.6879807E0,9.817209E1,7.570004E1,5E-1,5E-1,2.51125E1,5E-1,-4.0294654E-3,-2.370534E-2,2.125693E-2,-1.2224289E-3,1.1644235E-4,2.240105E-2,2.7353438E-2,-9.6552605E-3],"split_indices":[14,12,12,7,6,14,5,0,0,0,0,0,0,0,0],"split_type":[0,0,0,0,0,0,0,0,0,0,0,0,0,0,0],"sum_hessian":[1.1479834E3,8.2470074E2,3.2328262E2,6.266853E2,1.9801549E2,2.0995854E2,1.1332407E2,4.7472855E2,1.5195673E2,8.232921E1,1.1568627E2,1.648991E2,4.5059444E1,1.03620316E2,9.703761E0],"tree_param":{"num_deleted":"0","num_feature":"26","num_nodes":"15","size_leaf_vector":"0"}},{"base_weights":[-7.5732903E-3,1.1523314E-1,-3.12174E-1,2.357873E-1,-3.9891768E-1,-2.4738416E-1,-7.2555447E-1,3.3562422E-1,-2.4752301E-1,-5.571396E-1,6.703804E-2,-3.290627E-1,2.9054204E-1,-4.8408255E-1,-8.5637385E-1],"categories":[],"categories_nodes":[],"categories_segments":[],"categories_sizes":[],"default_left":[1,1,1,1,1,1,1,0,0,0,0,0,0,0,0],"id":79,"left_children":[1,3,5,7,9,11,13,-1,-1,-1,-1,-1,-1,-1,-1],"loss_changes":[4.2432182E1,5.0204643E1,8.549633E0,3.1713799E1,1.1385567E1,1.2542023E1,9.641113E-1,0E0,0E0,0E0,0E0,0E0,0E0,0E0,0E0],"parents":[2147483647,0,0,1,1,2,2,3,3,4,4,5,5,6,6],"right_children":[2,4,6,8,10,12,14,-1,-1,-1,-1,-1,-1,-1,-1],"split_conditions":[5E-1,5E-1,5E-1,5E-1,9.631184E0,6.55E1,5E-1,1.2523272E-2,-9.235919E-3,-2.0788759E-2,2.5014156E-3,-1.227844E-2,1.0841104E-2,-1.8062754E-2,-3.19542E-2],"split_indices":[6,20,22,8,14,3,5,0,0,0,0,0,0,0,0],"split_type":[0,0,0,0,0,0,0,0,0,0,0,0,0,0,0],"sum_hessian":[1.1323788E3,8.0745667E2,3.249221E2,6.5452905E2,1.5292758E2,2.8227853E2,4.2643562E1,5.427246E2,1.1180448E2,1.140161E2,3.891148E1,2.4540465E2,3.6873882E1,1.6636183E1,2.6007378E1],"tree_param":{"num_deleted":"0","num_feature":"26","num_nodes":"15","size_leaf_vector":"0"}},{"base_weights":[-9.835071E-3,1.6220601E-1,-2.3460054E-1,3.400474E-1,-2.0291989E-1,-3.2732958E-1,2.3641945E-1,4.6435413E-1,-1.0793456E-1,-2.7900437E-1,2.9793918E-1,1.2530078E-1,-4.4958067E-1,4.1239908E-1,-3.808488E-1],"categories":[],"categories_nodes":[],"categories_segments":[],"categories_sizes":[],"default_left":[1,1,1,1,1,1,1,0,0,0,0,0,0,0,0],"id":80,"left_children":[1,3,5,7,9,11,13,-1,-1,-1,-1,-1,-1,-1,-1],"loss_changes":[4.3672436E1,4.161171E1,2.1463814E1,2.4028545E1,8.092271E0,2.2717274E1,8.96895E0,0E0,0E0,0E0,0E0,0E0,0E0,0E0,0E0],"parents":[2147483647,0,0,1,1,2,2,3,3,4,4,5,5,6,6],"right_children":[2,4,6,8,10,12,14,-1,-1,-1,-1,-1,-1,-1,-1],"split_conditions":[5E-1,5E-1,9.915529E1,5E-1,6.985833E0,2.5E0,5E-1,1.732662E-2,-4.0274025E-3,-1.0410595E-2,1.1117117E-2,4.675395E-3,-1.6775372E-2,1.5388002E-2,-1.4210754E-2],"split_indices":[16,1,12,7,14,3,0,0,0,0,0,0,0,0,0],"split_type":[0,0,0,0,0,0,0,0,0,0,0,0,0,0,0],"sum_hessian":[1.1274104E3,6.3876337E2,4.88647E2,4.295915E2,2.0917186E2,4.0852612E2,8.012089E1,3.3625137E2,9.334011E1,1.8197185E2,2.720002E1,8.686958E1,3.2165652E2,6.260458E1,1.751631E1],"tree_param":{"num_deleted":"0","num_feature":"26","num_nodes":"15","size_leaf_vector":"0"}},{"base_weights":[-9.939557E-3,8.249166E-2,-4.3336412E-1,2.550924E-1,-1.4881606E-1,-3.69178E-1,-9.745023E-1,3.917954E-1,-1.0643852E-1,-1.9399796E-1,7.3888963E-1,-7.1498233E-1,-2.0312138E-1],"categories":[],"categories_nodes":[],"categories_segments":[],"categories_sizes":[],"default_left":[1,1,1,1,1,1,0,0,0,0,0,0,0],"id":81,"left_children":[1,3,5,7,9,11,-1,-1,-1,-1,-1,-1,-1],"loss_changes":[4.3991695E1,3.687622E1,6.635559E0,2.6175327E1,1.5983324E1,1.02858925E1,0E0,0E0,0E0,0E0,0E0,0E0,0E0],"parents":[2147483647,0,0,1,1,2,2,3,3,4,4,5,5],"right_children":[2,4,6,8,10,12,-1,-1,-1,-1,-1,-1,-1],"split_conditions":[5E-1,5E-1,4.5E0,5E-1,3.3975E1,4.5824997E1,-3.636197E-2,1.4619209E-2,-3.9715804E-3,-7.2387187E-3,2.7570466E-2,-2.6678404E-2,-7.579144E-3],"split_indices":[2,16,13,7,14,12,0,0,0,0,0,0,0],"split_type":[0,0,0,0,0,0,0,0,0,0,0,0,0],"sum_hessian":[1.1221117E3,9.217122E2,2.0039944E2,5.277814E2,3.9393085E2,1.8065375E2,1.9745693E1,3.8291055E2,1.4487082E2,3.755955E2,1.833537E1,5.7534813E1,1.23118935E2],"tree_param":{"num_deleted":"0","num_feature":"26","num_nodes":"13","size_leaf_vector":"0"}},{"base_weights":[-4.2228065E-3,5.1613636E-2,-6.696152E-1,2.1312803E-1,-1.5605637E-1,-7.710759E-1,-2.5214943E-1,3.07848E-1,-3.5987365E-1,-2.3962036E-1,3.084406E-1,-6.421629E-1,-9.5723706E-1,3.5802895E-1,-7.0367676E-1],"categories":[],"categories_nodes":[],"categories_segments":[],"categories_sizes":[],"default_left":[1,1,1,1,1,1,1,0,0,0,0,0,0,0,0],"id":82,"left_children":[1,3,5,7,9,11,13,-1,-1,-1,-1,-1,-1,-1,-1],"loss_changes":[4.167223E1,3.474452E1,3.4835815E0,3.1728363E1,1.7669697E1,1.0501022E0,5.3389587E0,0E0,0E0,0E0,0E0,0E0,0E0,0E0,0E0],"parents":[2147483647,0,0,1,1,2,2,3,3,4,4,5,5,6,6],"right_children":[2,4,6,8,10,12,14,-1,-1,-1,-1,-1,-1,-1,-1],"split_conditions":[5E-1,5E-1,1.0589168E2,5E-1,9.9130295E1,1.3225957E0,1.10025E2,1.1486848E-2,-1.34281E-2,-8.941044E-3,1.1508959E-2,-2.3961267E-2,-3.5717744E-2,1.3359268E-2,-2.6256556E-2],"split_indices":[22,16,12,21,12,14,12,0,0,0,0,0,0,0,0],"split_type":[0,0,0,0,0,0,0,0,0,0,0,0,0,0,0],